0
0.023284595
0.11178612
0.12126775
-0.13199823
0.11758053
0.18254225
-0.059856813
0.20264605
-0.06973463
0.23400557
0.14848912
0.18458128
-0.05954708
0.10534373
0.0092790425
0.04399693
-0.062258694
-0.017969547
-0.094129585
-0.13969265
0.20906806
0.2098776
0.083489455
-0.21747892
0.09297143
-0.12134362
0.17534505
-0.106653824
-0.17572758
-0.11165649
-0.030945243
0.20259935
-0.15828118
0.07277349
0.13064767
-0.1430589
-0.16082372
0.15495838
-0.016012436
-0.050648674
0.16730516
0.2100298
0.1591984
0.13146447
0.07485697
0.012056702
-0.09471929
-0.08975789
0.113680415
0.0859614
0.07410056
-0.20350249
0.053146776
0.006010931
-0.006813706
0.08829692
0.057004776
-0.119823605
0.22528547
0.21524689
0.09115371
0.013143837
0.16791993
-0.13539807
0.22837925
-0.026274962
0.21763404
0.18814144
-0.22544923
-0.13722195
0.041619163
-0.07101484
-0.15763423
-0.141835
-0.19955885
0.17971806
-0.19306883
0.20612234
-0.24587688
-0.049219236
0.11239977
-0.057944402
0.003809798
0.16421269
0.18129076
-0.13067627
-0.12995586
-0.15865172
0.24335906
0.07580778
0.06641397
0.12704991
-0.10920423
-0.04099688
-0.05141793
-0.09716227
-0.0082288105
0.008364221
0.008749085
-0.00048154892
0.0
-0.008198073
-0.0052418956
-0.008785277
0.0066208937
0.0066542677
0.007895712
-0.008952569
0.0
0.0044094226
0.0
0.0
0.008330481
0.008216905
-0.0014832404
0.006400473
-0.0059492863
0.008668774
0.008993708
0.0
0.008357112
0.0
-0.0086215185
-0.008142199
0.0
0.0
-0.008264376
0.007232836
0.0048384247
0.04347968
0.04915844
-0.07492225
0.1336048
-0.013380417
0.011974972
0.077626534
0.011707065
-0.039102938
-0.06027484
0.12984452
0.0139179705
0.13762744
0.12779361
0.051148016
-0.11912162
0.028303513
0.01862048
0.109344415
-0.028462552
-0.039490737
0.04572651
0.10459004
0.13293111
0.13952951
0.006992221
0.07392997
-0.04305855
-0.078114755
-0.07577741
-0.0012963436
0.102469705
0.03692317
-0.09837121
-0.12905644
0.07210251
-0.019655198
-0.047682863
0.02417952
-0.08280672
0.08853398
-0.1290808
0.04104881
0.081715964
-0.03703542
0.021216584
-0.042353045
-0.039314803
-0.021117972
0.030782374
-0.051694468
-0.035253428
-0.036584713
-0.078210354
0.124617904
-0.02673988
-0.10547317
-0.10151784
-0.06975827
0.05400467
-0.14270034
-0.10228342
0.020360854
-0.050176702
-0.027593339
-0.10146224
0.04971762
0.07033534
-0.11072359
-0.08792224
0.096439525
0.043679304
0.13338968
0.12551588
0.13404226
-0.04027034
0.12325049
-0.12898833
-0.04912213
0.04703401
0.032452654
0.06484095
0.039837398
0.07635151
0.08379029
-0.0841747
-0.1283127
-0.03750743
0.1006591
-0.0029246658
0.04113748
-0.052054457
-0.05896038
0.1447191
-0.13957392
-0.10606359
-0.049311213
0.0113811195
0.0421198
-0.101240784
0.12699601
0.06742478
0.048465665
-0.08398978
0.029053658
-0.05802545
-0.031636268
0.13801132
-0.13126199
-0.03467833
-0.02653842
0.13941854
-0.049352203
0.056028932
-0.06837395
0.05412933
0.033735123
-0.07575253
-0.018145902
0.086554214
0.14314947
-0.14219981
-0.08077902
-0.044861674
0.055731222
0.07458569
-0.0766095
-0.14366847
-0.004357412
-0.13375641
-0.029780217
-0.0026562023
0.11915224
-0.05976095
-0.0009199069
-0.10670704
-0.016482085
0.08360415
0.09502384
-0.08130907
-0.118553884
0.017677236
-0.09468427
0.03960626
0.12193599
0.071548104
0.030165954
-0.03552033
-0.13861074
0.06729063
0.069214374
-0.04894144
-0.07922819
0.014099494
0.028969558
-0.018769339
-0.0069267005
-0.032144655
-0.10914919
-0.020637697
-0.07305064
-0.06672757
0.03923111
-0.04687805
-0.07512264
-0.0019095525
-0.108636305
-0.04946942
0.0022539347
-0.08022085
-0.104913175
-0.07173111
-0.10764152
0.11986646
0.022838498
0.025478305
0.15031002
0.08555042
-0.074065514
-0.037400506
0.0555838
-0.016597658
-0.016567437
-0.10866073
0.087140456
-0.11962353
0.07958779
-0.048222527
-0.09423672
0.11126399
0.09655877
-0.036494747
0.016454844
-0.12535137
0.08509418
0.042618692
-0.018679067
-0.023643008
0.04592578
-0.12989166
-0.043859467
-0.015055225
-0.0357382
-0.022950554
-0.06753905
0.0075138756
-0.11341852
0.14222172
0.04897123
-0.0090344
0.009524514
0.04993023
-0.063602
-0.012296487
-0.1126142
-0.12508875
0.048456345
-0.09435217
0.098341964
-0.07316583
-0.046861432
0.13138159
-0.013214293
0.003598406
-0.11976345
-0.105757624
0.09404731
0.113690756
-0.07196869
0.13752934
-0.14594963
-0.07232586
0.081064925
0.051864773
0.07505567
-0.011321422
-0.100327164
0.032072097
0.060820762
0.09483148
0.015988473
-0.04977151
-0.119333595
-0.062376995
0.13647535
-0.058384135
0.043136083
0.08331631
0.08225799
0.056434244
-0.072629705
0.13119912
-0.0712564
-0.06479839
0.03235277
0.06428839
-0.10070642
0.023821235
-0.08654289
-0.012647003
-0.0140597075
-0.07235375
-0.07706864
-0.08167276
-0.13239913
0.09425007
0.0071296394
-0.081241325
-0.13455519
0.09398344
0.13724431
0.07943532
0.06730451
-0.11683479
0.045896187
0.00041855872
-0.13900974
-0.01710166
-0.08698203
-0.024192475
-0.13193934
-0.047028646
-0.007666573
0.13725087
0.016441107
-0.06155985
-0.028102383
-0.09951481
0.12416619
0.11821571
0.054986775
-0.015223652
0.07773064
-0.13208811
0.014685303
-0.116073504
-0.046209894
-0.08585185
-0.08122846
0.0047612786
0.08886376
0.014753237
0.114937335
0.096279114
0.060174048
-0.07887603
0.13584086
-0.124098666
-0.14063537
0.13936234
-0.0076248646
-0.1364856
-0.0049438775
-0.059243664
0.14286321
0.083603516
0.05255899
-0.019901618
-0.061133265
-0.10090265
-0.11330173
0.12731108
-0.023032255
0.049812365
-0.02811786
0.09102925
-0.0629738
-0.07911748
0.10892628
-0.04917515
0.13512948
0.034380816
-0.114202194
-0.00025185116
-0.0886861
0.08151743
0.01856842
0.015662855
0.079677716
-0.07859147
0.049973384
0.09954875
0.10733785
0.041978672
-0.015917232
0.04722631
-0.04069605
0.047029987
0.07804142
-0.04320256
0.08636943
0.04130828
-0.113230325
-0.13548589
0.12089194
0.13801657
-0.029670011
0.061140705
-0.10374131
-0.050494425
0.046822548
0.073899984
0.08732815
-0.10588911
0.0032021403
-0.08305644
-0.018018292
0.08622237
-0.0076016034
0.023326077
0.0905634
0.09684508
0.053739082
0.016860634
0.096237816
0.072138846
0.090416536
0.055915326
0.10380188
-0.04263021
-0.052759126
0.08176781
-0.11147799
-0.039614692
0.041964635
-0.09380319
0.023566276
0.021137685
-0.053747416
-0.119607486
0.022709677
-0.028528877
-0.07118341
0.10152385
0.054453537
0.028244788
0.0776739
0.035902232
0.047943804
0.13418198
-0.10843638
0.11385627
0.12220803
0.13046616
0.111522526
-0.0367894
-0.10529047
-0.045504607
0.08320389
-0.13978344
0.035079252
0.05781415
0.0731127
0.12058253
0.11997402
0.039462924
0.14118597
0.11936602
0.0029905892
0.092172325
0.034306854
-0.05136998
-0.1001084
0.008629837
0.025160715
0.08553742
0.03561005
0.04568472
0.07380682
-0.09861141
-0.063181266
0.0002846826
0.012190095
0.066798046
0.11419842
0.1346359
-0.044299915
-0.093795896
-0.052839015
-0.10185147
-0.14657371
-0.04970458
-0.017660081
0.117120445
-0.13654597
0.05220753
-0.09860532
0.059906956
0.04664631
0.14993489
-0.06117501
0.12134866
-0.061575443
0.09640083
0.009565651
-0.012363432
-0.027085202
-0.13404778
-0.09522873
-0.108655795
-0.031460747
0.012957113
-0.055985413
-0.11232207
-0.1350606
-0.1508554
-0.13041425
0.010905713
-0.052839547
0.0069838325
-0.09697443
0.083371
-0.09627799
0.0013575554
0.10722932
0.034460247
0.1041349
0.093979105
0.13449053
0.054086864
-0.028248437
-0.035795085
-0.055699963
0.13578522
0.09165129
-0.047674052
0.08894194
-0.10679218
0.06945863
-0.051481865
0.08268353
-0.028769812
-0.07039336
0.11050674
0.102175646
-0.032977927
-0.09625114
-0.12186926
0.06273015
0.096009865
0.12055369
0.10638571
0.06501155
-0.054972865
0.07694792
-0.09206885
0.13561982
-0.035857305
-0.053919524
0.10392502
0.06765771
-0.0023751352
-0.09857281
0.073573194
-0.012571052
-0.043470368
0.1342473
0.04735403
-0.04602696
0.09621491
-0.13211566
0.11263002
-0.0021524131
-0.14099717
-0.1297922
0.0589702
-0.080981575
-0.11015141
0.06558348
-0.107079744
0.13855548
0.08770129
-0.091213524
-0.12896894
-0.04434008
-0.06521441
-0.1352942
-0.03078486
-0.0034544617
0.044224903
-0.07582676
0.071610644
0.01695306
0.10498963
-0.09686341
0.07213059
0.14118607
-0.07020117
0.017704898
-0.017042918
-0.018628903
0.057808675
-0.08167283
0.032657355
-0.124050625
0.11572755
-0.00405851
0.077626035
0.14095393
-0.019061776
-0.06342436
0.03923043
0.08708021
0.018783195
0.054670636
0.07459909
0.055493448
0.067839995
-0.058370557
0.014212742
-0.038942747
-0.100113936
-0.027193546
-0.108568534
0.094815664
0.072212376
0.08132488
-0.010756863
-0.13980971
0.042090256
0.04531535
0.11631433
-0.11913643
-0.09187991
0.11818018
0.06259545
0.025951311
0.039368197
-0.06945987
0.122379236
0.08877263
0.087432146
0.03963007
0.12278818
-0.11339137
-6.0871243e-05
0.013849005
-0.09617421
0.13047095
-0.040453434
0.0786881
-0.115510166
-0.12483008
-0.08930172
0.08684321
0.0057038497
-0.035776608
0.105379045
0.042587474
0.023772225
0.020038094
-0.0164158
-0.10453429
0.14887953
-0.03951234
0.06991276
0.081143945
0.022255138
-0.07042172
0.086561635
-0.12100579
0.068367586
0.06655613
0.032888986
0.056802526
0.10017004
-0.128972
-0.03679098
-0.13343696
0.013671219
-0.013929724
-0.07026658
0.12563458
-0.09525406
0.1273669
-0.10215028
0.07069981
-0.038649246
0.034804296
-0.11834831
0.1298265
-0.1047185
0.109317124
-0.14010891
-0.11361142
0.09839353
0.08832681
0.07654405
0.09635142
-0.010621932
-0.12675953
0.13417493
0.089093
-0.00040017092
-0.062146533
0.004370138
-0.007388581
-0.08317833
-0.055810492
-0.013619095
0.0420717
-0.039170105
0.085280955
0.05179897
-0.070414916
0.00031763315
0.010785831
0.07561642
0.08684434
-0.11931073
-0.09346484
0.0078415675
0.04485476
0.015247747
0.062056195
0.12888806
0.03223848
-0.0018993254
-0.11934721
-0.018988326
0.08094177
0.107176214
-0.011167243
0.13374756
0.06301385
0.0825137
0.14692159
-0.004368052
0.13328628
0.11725485
-0.050514966
-0.06956325
0.10805578
0.09967837
-0.056227665
-0.021985896
-0.1346557
-0.021836199
-0.036041893
0.07183485
0.076013446
0.09281637
0.103723586
0.06727407
0.053063124
-0.09077998
-0.09618831
-0.07747219
-0.049422074
0.08927295
0.05819983
0.10994141
-0.099582046
-0.05536875
0.038026616
0.039271366
-0.12615348
-0.12000459
-0.09574377
-0.073465526
0.12144541
-0.07861431
-0.13342834
-0.09468364
-0.047997333
0.10501796
-0.062625825
-0.035504878
-0.12936632
0.03306687
0.12877677
-0.11985605
-0.0612396
0.12501915
-0.08245656
0.1030931
-0.09973099
-0.0053150207
-0.02892419
0.14821863
-0.08815665
-0.022324283
-0.030728597
-0.09795985
0.023310512
0.12810525
0.08821359
-0.0678409
0.13098907
-0.07493091
0.05284907
-0.122497596
0.0023677608
0.08233939
0.0057712942
0.08889354
-0.05389013
-0.059964642
-0.1463295
-0.1330614
0.13217594
-0.07941425
-0.120992154
-0.06715309
-0.06984527
-0.028276376
-0.045140576
0.12270358
0.01554957
-0.06804104
-0.077252924
-0.016178131
0.032408386
-0.036462344
0.095081
0.124985725
-0.06850933
0.08329518
-0.08864826
0.020857677
0.12661204
0.029189482
0.103411645
0.12529957
-0.016730651
-0.049031712
-0.08687191
-0.107443884
-0.06259725
0.09676705
-0.11806208
0.10288668
0.037799492
0.14161998
-0.054717317
0.029728249
0.07044925
0.1396622
0.012400642
-0.019177854
0.13730538
0.088749945
-0.13802196
0.06301306
-0.043137424
0.12826568
0.09057528
-0.13111006
0.027719378
-0.02732896
-0.05129552
-0.0929322
0.013526216
0.0746263
0.018504292
0.03288631
0.022441968
0.14068371
0.078618184
0.10884279
-0.084386304
0.11600667
-0.122710146
0.036734655
0.099662125
-0.008825049
-0.07959075
-0.09555869
0.05233097
-0.040624604
0.05903089
0.12514561
0.004195285
-0.0351102
0.116764516
-0.012342911
-0.14959592
-0.046029486
0.13523607
0.10820442
-0.08229596
-0.006496272
0.09635335
-0.08333122
-0.09166724
0.1159716
0.13787343
-0.014066175
-0.059842605
-0.13659824
0.088907585
-0.03444194
0.0030569136
-0.033978164
-0.10883923
-0.13452095
0.11371251
-0.036000043
-0.13460559
-0.07250372
-0.08074451
0.11084318
0.056298885
-0.0048126657
-0.013506636
0.11578196
0.045703936
-0.07809231
0.12495507
0.03185265
-0.08784545
0.13050328
-0.030096054
-0.018360898
-0.017973915
-0.0357381
-0.10504181
0.12545528
0.0558631
-0.034436073
-0.12127381
-0.13847618
0.10953429
-0.041507397
0.062323038
-0.038351193
0.054302134
-0.022285394
0.111336485
0.09569375
-0.12590334
0.10571879
0.06368026
0.04274188
-0.023730384
-0.09908121
-0.09934519
0.05417669
-0.020293549
-0.0698113
0.09318189
0.06482805
-0.0011808723
0.08395247
-0.0038172007
0.11861786
0.09654161
0.095528305
-0.01411432
0.035185844
0.023351356
0.06212008
0.10097742
-0.058980778
-0.06578728
0.09587459
-0.13630944
0.12780821
-0.12835333
0.03498219
-0.08629818
0.007168114
0.08856946
-0.11764665
-0.13287847
-0.06695198
0.06678893
0.049641743
-0.06713815
-0.07541539
-0.053536236
0.023584962
0.056675434
0.03809564
0.110606104
-0.05022621
0.039677426
-0.14319289
0.027355388
-0.113195464
-0.01893191
0.1297479
-0.077298865
-0.0134201795
-0.02313029
0.12836775
-0.105220065
0.10505292
0.02198194
-0.019935757
0.08442578
0.050952017
-0.11336529
-0.050678223
0.1440889
-0.119765475
0.09257169
0.08880405
0.11765045
0.059736967
-0.14094722
-0.13061097
-0.11941182
0.05678521
-0.02197764
0.0516735
0.13544762
-0.06880256
-0.02895128
0.08107643
-0.020131156
-0.05998254
0.029987723
-0.11506945
-0.06069681
-0.04855915
-0.08005409
0.08027898
-0.1084922
0.07922502
-0.06691519
-0.039865837
0.1087949
0.04481955
-0.015122175
0.074009106
0.008719847
0.056345552
-0.13734964
-0.021843947
0.04446122
-0.011499196
0.010934651
-0.090251416
-0.07767682
-0.0477582
0.024884135
0.038165957
0.029890954
-0.10865136
-0.106143534
-0.016155273
-0.01493755
-0.036077954
-0.058988355
-0.09461368
-0.14070423
0.050491467
0.0023795068
0.08278161
-0.10447252
0.109791964
0.13015497
0.11996567
-0.026825912
0.1286386
-0.04846163
-0.10038053
-0.010346949
-0.083656
0.1374763
-0.005521044
-0.06642378
-0.009346896
-0.051203072
0.09018786
-0.009699136
-0.086632475
-0.13641022
-0.05088088
0.019575527
-0.0041571474
-0.08622695
0.07476108
-0.12142541
0.06377662
-0.05983129
0.03997829
-0.09136591
-0.0549964
-0.07521538
-0.08380362
-0.084296644
-0.07453167
0.1302464
0.06754533
0.08223052
0.033119455
0.048695363
-0.01898019
0.07698564
-0.09322529
-0.06881195
0.1251381
0.035802186
0.053262882
-0.13420865
-0.062349208
-0.057163544
-0.12582178
0.15259455
0.08881398
0.045291394
0.06330883
-0.14100352
-0.0894667
-0.06945909
-0.08711628
-0.04050991
-0.036636278
0.011720781
0.09811597
0.044184897
0.081357494
0.09047437
0.09639677
-0.023926048
0.09096338
-0.033986557
0.023130983
0.11048377
0.07522009
0.14190972
0.0467529
0.1208733
0.11585802
-0.021871062
-0.0059452914
-0.031764034
-0.028053986
-0.096834056
0.018225523
0.13465449
-0.13508889
0.102774665
-0.11183717
0.09580755
-0.007675615
0.0071092695
0.13692376
-0.12565096
0.049421832
0.03670511
0.10156079
-0.073924966
-0.07125795
-0.026212418
-0.14140202
0.114654124
0.07006407
0.12591691
-0.10892312
-0.07749924
-0.09809615
-0.05669086
0.081129104
-0.00662528
-0.087819666
-0.102619685
0.043065757
-0.0682618
-0.12622978
-0.12648283
0.10091086
-0.093017325
-0.11594682
-0.06616004
-0.115686364
0.07100497
-0.120724976
-0.005896181
0.07565415
-0.1345389
-0.016125156
0.04949217
0.06998074
-0.10527749
0.06929657
-0.035015292
0.004206431
-0.01733367
-0.10815764
0.0715223
0.04352884
-0.06603224
-0.100481495
-0.10904969
-0.05691626
0.013046697
0.008992255
0.1246312
-0.12236797
-0.010054338
0.015727486
-0.030106656
-0.06977262
0.09910385
-0.06954014
-0.059780754
-0.04998179
0.07510787
0.13637863
-0.058019876
-0.05485361
-0.06687116
0.050345752
0.0618341
-0.026430063
-0.07500632
-0.03234856
-0.09656182
-0.08898998
0.081481844
-0.0059500686
0.06917531
-0.09651157
0.12208955
-0.09873932
0.034354113
-0.094491
-0.1383747
-0.05590784
-0.002638624
-0.117007986
0.136783
0.12298742
0.0070748604
0.13981713
0.023778928
0.07495173
0.060100105
0.0067422823
0.13859013
0.13413215
-0.09434216
-0.05542849
0.011335179
0.04457945
0.11275966
0.10639309
-0.06781275
0.08285602
0.08120069
0.047307223
0.025635483
-0.026594348
0.13891882
0.0893265
-0.0016880925
0.1030978
-0.091431186
0.012723431
0.0053153187
0.05356191
0.023753647
-0.035037424
-0.12817657
0.024120107
0.016949072
-0.087536275
-0.02939555
0.11469063
0.082691684
-0.0044974056
0.011561558
0.012931592
0.1128189
0.09598563
0.060644284
-0.09971884
-0.12856592
0.0756052
-0.08923471
0.10798549
-0.11609896
0.009851471
0.12900737
-0.11946732
-0.07775793
-0.06651377
-0.028185595
0.08421521
-0.10693297
-0.11059028
-0.12025875
0.06845447
0.1052721
-0.025176208
-0.13655281
-0.00627245
0.041714042
0.073241875
-0.005782838
-0.10244829
-0.07092711
0.08438281
0.012423694
0.13624522
0.07631852
0.1332401
-0.11607802
8.162978e-05
0.045782283
0.07308295
-0.11911216
0.08795174
0.013088614
0.0777815
0.054637507
0.0107078105
-0.038866937
-0.11231835
-0.043604426
0.1442663
-0.0070560575
0.08286643
-0.085842796
-0.047126003
-0.12637328
0.12612587
-0.10644562
0.02347626
-0.07601155
0.019786278
0.01155418
-0.036717657
0.037199795
-0.03889795
-0.025737591
0.061168473
0.029853135
0.017292215
0.04865935
0.09183304
0.12589175
-0.08288433
-0.103496216
-0.046611052
0.11326774
0.004584536
-0.08472944
-0.07787177
-0.06811758
-0.049213894
0.12297235
-0.020892948
-0.023808623
0.0530653
-0.09828707
0.04269916
0.02333377
-0.08539979
-0.026299365
-0.019677348
-0.06246872
0.09890866
0.09199619
0.07477135
0.13235502
-0.037207212
-0.030013084
0.02022995
0.114426345
0.14088872
-0.11079855
0.10074127
0.019868836
0.018092262
-0.0070705023
-0.049343385
-0.09623211
-0.06278354
-0.015300596
0.07083106
0.019098155
-0.063834496
0.07651662
0.0633015
0.016532227
0.04780373
0.07796283
-0.06746029
-0.13170893
0.046242177
0.11869437
0.048606824
-0.07340227
-0.07610057
-0.014224247
0.08533073
-0.13377048
0.011596372
0.069098495
0.12703581
0.09364289
-0.12824957
0.08117025
0.042146124
-0.04583151
-0.026839264
-0.012258162
-0.029056782
0.09048088
-0.08030647
0.1015155
0.11741385
-0.11428387
-0.009392172
-0.092070095
0.13988373
-0.01388366
0.12508339
-0.10348384
0.053969722
-0.0036183826
-0.0045492654
0.056562975
0.018439874
-0.006941829
-0.05085688
0.14562924
0.038160205
-0.11227134
-0.15049215
0.06618984
-0.09995743
0.07705295
0.10870743
-0.025401779
0.003259562
-0.009122343
0.14707461
0.08529408
-0.08384154
-0.11464586
-0.0072054374
0.0257945
-0.062372535
-0.030682806
0.108976394
-0.040813267
-0.11742235
-0.0904646
0.013354078
0.06031528
0.01721543
-0.050917856
0.09826256
-0.01998872
0.017090656
-0.10325992
0.121281296
0.0021131898
-0.13110389
-0.016536608
0.10223738
-0.030995859
0.13748828
0.06666677
0.03137645
0.1368146
-0.11111208
0.016350597
0.0793764
-0.0631789
-0.07781638
-0.021737166
0.057641506
0.09108475
0.13532339
0.06800025
-0.017382845
0.061448246
0.01645638
0.080765784
0.11393434
0.056774855
-0.090129524
0.13323726
0.057962477
0.0040299
-0.059684075
0.049307916
-0.08962594
0.036534008
-0.1256398
0.056869626
-0.03429854
-0.10790932
-0.040406637
-0.1251212
0.10919057
-0.07452967
0.071956456
-0.060789783
-0.049510285
-0.14904508
0.00022655627
0.09140527
0.0016071529
-0.037415143
-0.024627522
0.028548377
-0.026040994
-0.01579575
-0.13050708
-0.0010135919
-0.11086658
0.0045643747
-0.09389084
-0.038513638
0.067974076
-0.024993539
-0.00686799
0.033813357
-0.003149286
-0.08276099
-0.14018354
-0.0034915209
-0.011177331
-0.04209864
0.034395486
-0.06308836
0.010392651
-0.10475942
-0.07631153
-0.0684137
-0.041766934
0.10313338
-0.12519942
-0.017753229
-0.05966618
0.12760201
0.023448959
-0.019546099
0.08012082
0.009925082
-0.02202496
-0.11485154
0.006866619
0.14385837
-0.1041574
-0.083858594
-0.00767529
0.04673411
0.14302716
0.115357816
-0.01463981
-0.048090108
0.031817347
-0.027243786
0.009813353
-0.13169907
0.13539267
-0.0667305
-0.11481786
0.12136087
0.110063195
-0.028447546
-0.0887685
-0.12396064
-0.038819417
-0.058762774
0.12553695
0.07783522
-0.013783649
-0.0661908
0.07571179
0.05808492
0.02203542
0.114338934
-0.050656095
0.13035321
-0.08432475
-0.1427195
-0.030957663
0.0057102726
0.05176684
0.0942585
0.051374808
-0.01787005
0.023078978
0.09938441
0.03201414
-0.012619248
-0.0012613762
0.00020843744
-0.1266306
0.0814519
0.035908304
-0.06815766
0.0923422
-0.13348962
-0.12364323
-0.023162365
0.07335447
-0.049270153
-0.039581325
0.071371615
0.06628172
-0.05270947
-0.11447741
0.10448014
-0.0019201636
0.060651585
0.063438065
-0.036448807
-0.12138258
-0.08763494
-0.08742785
0.14376462
-0.11509044
-0.045744613
0.13233474
0.1114694
0.02573225
0.058404163
0.054146037
0.0039295554
0.07633174
0.09101479
-0.10853684
-0.044454794
0.08543469
-0.08369426
0.119855925
0.10923734
-0.10598523
-0.059721272
0.098865375
0.13816947
-0.028062947
0.07160772
-0.09082607
0.10541491
-0.020018965
-0.10786606
-0.03169363
0.009305111
0.12572697
0.091939285
-0.13746624
-0.009922713
-0.08373701
0.07906926
0.10701388
0.11263591
-0.018006474
-0.035539985
0.07870889
0.12132627
-0.010251492
-0.09367569
-0.13544345
-0.09895808
-0.093313456
-0.014094055
0.14260039
-0.009718955
-0.14019321
0.050166845
0.047149643
0.0045190156
0.070335165
0.13992429
0.12835872
-0.09443539
0.08004531
-0.010136202
-0.024282709
-0.050884873
-0.08401148
0.03503178
-0.02034682
-0.10953608
-0.080944
-0.0006185621
0.04399292
-0.10110771
-0.10106018
0.00967896
0.054110035
0.085100025
-0.08659148
-0.11878716
-0.08738452
-0.070556514
-0.026893191
0.097537935
-0.09697725
-0.03551641
-0.039994985
0.09193316
0.124290526
0.123970956
0.14120778
0.015272662
0.1331223
0.104277566
-0.039280646
-0.10658371
-0.11728363
0.02310957
0.090144075
0.091471784
-0.024504641
-0.08597264
-0.0989338
-0.0024626656
-0.016791478
0.014321837
-0.072011545
-0.07545603
-0.120700486
-0.08060999
0.024054585
0.06826786
0.14855441
-0.10718533
-0.08426727
-0.09055223
0.063838325
0.10763322
0.012199804
-0.020528242
-0.059822448
0.077822864
-0.10364142
0.0006332622
-0.10917471
0.12594998
0.027114019
-0.07113358
-0.13003783
-0.10300518
0.030768236
0.031653434
-0.008168727
-0.08262716
0.07535713
-0.10254515
-0.12231713
0.007384108
0.110268496
-0.1305503
0.02022031
0.007905543
0.03801009
-0.04367526
0.12133498
-0.11225814
0.13262951
0.07128071
0.12306296
0.09864327
-0.08892187
0.04540201
-0.13665943
-0.048461657
-0.06911307
0.10937622
-0.13733959
0.023936585
0.050041825
-0.039706506
-0.095892765
-0.023493357
0.06230361
0.06875755
-0.13197814
-0.11606642
-0.122781076
-0.003386872
0.09717073
0.1209418
0.096643865
0.07819347
0.15109386
-0.008370832
0.09282676
-0.02178867
0.104001135
-0.080898486
-0.04511953
-0.010593904
0.114225864
-0.09122346
-0.012041822
0.11355558
0.11552806
0.10694358
0.10993987
-0.052886147
0.061111867
-0.09082076
-0.057705685
-0.13144228
-0.14153819
-0.08052955
-0.04018343
0.112776905
0.0041113943
0.042893987
0.117136806
0.082371
-0.13043126
0.105529994
0.1310591
-0.099435836
-0.010708705
-0.07643944
-0.05564929
-0.09370935
-0.051167376
-0.12239172
-0.005190312
-0.030837208
0.09655787
-0.07821658
0.087691866
-0.08053256
0.056936935
-0.039115265
-0.026620299
0.04063578
-0.008649334
0.061352983
-0.01870069
-0.11041233
-0.037808985
0.073308066
-0.043594114
-0.05612862
-0.04200373
-0.12505141
0.123167664
0.08027351
0.111414135
0.015362963
-0.12721102
0.12525025
-0.05260107
-0.10328435
-0.014222175
0.028344542
-0.045583002
0.1435726
-0.007413432
-0.12672845
0.08521229
-0.10782543
-0.026092336
0.103862345
-0.0691609
-0.032373592
-0.12666053
0.09700677
-0.042134188
-0.07017797
-0.0045368373
-0.0030689985
-0.022948526
0.07683419
0.032373592
0.043572232
0.026914865
0.14374721
-0.053345248
0.060384855
0.14308748
-0.122914284
0.08400966
-0.046837553
0.018331885
0.10228494
0.007201627
-0.080207154
0.116389275
0.026924029
0.12156543
-0.047432855
0.11112875
0.0384852
-0.051646836
-0.11868364
0.0012981594
0.06103082
-3.8847327e-05
0.14183712
-0.1067217
0.06903361
-0.08348442
-0.027834825
-0.059500553
0.118830144
0.113328755
-0.10268302
0.021049142
-0.10843281
0.018689156
-0.101490036
-0.019762732
-0.051927097
-0.023874536
0.0765623
-0.113578446
-0.10755914
-0.01752694
0.13741454
-0.12628646
-0.092216074
0.019953474
0.122424126
0.11061838
-0.1240573
0.017549708
0.0056319237
0.06530723
-0.0687613
-0.14169429
0.115373015
-0.02247721
-0.058799393
0.011652052
-0.12119027
0.13943812
-0.05720956
0.087520316
0.016019553
0.021680966
0.021725386
-0.096687704
-0.044051595
-0.012890577
-0.016295373
0.055118874
0.0012695491
-0.004979968
0.02688776
0.054598868
-0.14361094
-0.014639571
-0.037928432
0.0044139475
0.06666012
-0.10370794
-0.026391037
-0.09455593
0.09154303
0.03492306
-0.095956706
0.077144116
-0.12676647
-0.14330845
0.03213212
0.06714696
-0.10642795
-0.01123026
0.009250939
0.046642292
-0.06581324
0.12193395
0.10682759
-0.030575817
0.10237448
0.1399449
-0.07707586
-0.09660552
-0.11485033
0.09880842
-0.09153584
-0.11244783
-0.09053486
-0.08739193
-0.03331065
0.00871779
0.01601083
-0.02109567
-0.1318955
0.10212959
-0.13799615
0.07844048
-0.08417287
0.027536228
0.07865019
0.036410972
-0.09553824
0.07033256
0.097974285
0.010339645
0.11922237
-0.13505736
-0.08677397
-0.028439358
-0.045974147
0.06863369
0.09456672
0.014007544
0.0318933
0.029507106
-0.097663134
-0.07089651
-0.038432717
0.035550732
-0.109182216
-0.0948284
0.03416109
0.0064674662
0.06259668
-0.03542917
0.019943848
0.1226758
0.0118385665
-0.13229434
0.111159556
0.015128121
-0.12474255
0.026599824
-0.045957275
-0.028304525
-0.061170675
-0.04409124
0.08984995
0.024177032
0.045462444
0.03591294
0.08643325
-0.05967283
0.11503162
0.11449428
0.054011583
-0.102002375
-0.015839092
0.08178549
-0.031358488
-0.1070005
-0.11187859
-0.11818801
0.043450717
-0.010591805
0.09990671
0.13171871
-0.04331655
-0.0115121305
-0.025710702
0.10402738
0.008324657
-0.11103837
0.0445502
0.14071125
0.03265601
-0.01142019
0.010756299
0.047536623
0.09416687
-0.05246249
0.039172247
0.022328168
0.09024256
0.006821025
-0.017455395
0.115633965
0.07014306
0.012446256
-0.072363734
0.06101647
-0.09908083
0.09168386
-0.12399412
-0.106933884
-0.059874095
-0.11658274
0.02880101
0.024991987
-0.106035724
-0.077513546
-0.039865445
-0.0034317374
-0.06854434
0.14099684
-0.006580787
-0.100811414
-0.1274631
-0.028597206
-0.026264332
0.09061943
0.060601275
0.10798636
0.10830349
-0.038123153
0.08141594
0.13485937
-0.008038615
-0.013292403
-0.038305026
0.0015775831
0.11399799
-0.123814434
-0.07026005
-0.07719795
0.0008961144
-0.037736047
-0.12243282
-0.06488233
-0.14381562
0.05799179
0.06664694
0.016894147
-0.009527788
0.056562126
0.11191477
0.09291771
-0.06600749
0.026626974
-0.059081055
-0.088986605
0.050959587
0.078315504
-0.061495237
-0.08700819
0.10866484
-0.005568877
-0.09530375
0.050557565
0.1044681
-0.050778106
0.025115315
-0.10539748
-0.022027329
-0.08505508
-0.066587895
0.05519128
0.0004017353
0.08655436
-0.0426946
0.14119019
0.06445884
0.006674775
-0.08913389
-0.049089182
-0.028974423
0.10916972
-0.104380526
0.065390915
0.045629278
-0.13466255
0.11401701
-0.0071538687
0.0076511204
0.116687864
-0.014265605
-0.11105659
0.087643
-0.12074689
0.14401108
-0.10948034
0.12907134
0.005798378
-0.14075561
0.11072168
0.05141459
-0.0099216085
0.03799826
0.13811007
-0.024166742
0.04313812
-0.012585858
0.06931965
0.023304818
0.03299129
0.116247274
-0.038803138
0.061316654
-0.1308156
-0.018231304
-0.03646861
0.021855209
0.026810363
0.0789249
-0.08986186
-0.04320728
0.11863043
-0.012698283
0.002286521
0.059441537
-0.018190965
-0.08479919
0.013810331
-0.021707514
-0.013301933
0.07878679
-0.036667746
-0.07452547
-0.12769191
0.03340058
0.07832875
-0.04276415
-0.05889818
0.03398368
0.006518159
-5.8847295e-06
0.11366539
-0.077290915
-0.13321824
0.027154729
-0.00054107606
-0.12340554
-0.044329964
-0.060257617
0.11058661
0.060623094
0.08774465
0.10969129
-0.13496639
0.016255561
-0.08326583
0.12636241
-0.056979757
-0.07497824
-0.006659801
-0.094172746
-0.12504469
0.012617895
0.084842816
0.06276204
-0.005562816
0.017472014
-0.0854361
0.101146
0.044216707
-0.10045812
-0.017380953
0.025848301
0.058287628
0.13008264
-0.046990067
0.0012178272
0.007647294
-6.49902e-05
-0.07239842
-0.06470396
-0.1030766
-0.083818704
0.010309339
0.035341114
-0.024568053
0.07131958
-0.08620696
-0.10043587
0.123693466
0.0464167
-0.12961501
0.09732236
0.07837286
-0.10418363
0.055147275
0.13952118
-0.110028185
-0.026924573
0.08101697
0.09700613
-0.047399398
-0.12035426
-0.00692108
0.032175295
0.05351975
-0.09965271
-0.04013265
0.040587235
-0.07566515
-0.1343694
-0.019974917
-0.07317338
0.13920835
-0.10775487
-0.121062845
-0.142697
0.0682535
0.029070135
0.00066786766
0.02943373
0.042052105
-0.08064685
0.019053832
-0.07655972
0.014135515
-0.0028857142
-0.0043579303
0.11599318
-0.05402906
0.09085061
0.10786866
-0.14404935
0.12665254
-0.11171696
-0.09310788
-0.092497945
0.00581889
-0.14545317
-0.122979805
-0.058043793
0.09688381
0.05893475
0.11074585
0.13670994
-0.01448302
0.051935256
0.09542665
-0.030963942
-0.058051992
-0.12881397
-0.0012693852
-0.03116884
0.117973566
-0.14368746
0.07723767
-0.095149435
0.055938456
-0.12410178
0.119440556
0.13294217
-0.10896304
0.13567394
-0.006312658
-0.08486052
-0.038969975
0.0028384686
0.03755944
-0.025540665
-0.009783746
-0.08787562
0.019360017
-0.006345699
-0.016042843
-0.07623426
0.020680249
0.13443227
0.09033689
0.053075448
0.07169017
-0.08425664
0.13574114
0.031820897
0.04813704
0.12026155
-0.06497497
-0.08775074
-0.07519848
-0.028176926
0.013709769
-0.13225219
-0.035186872
-0.11863526
0.13463533
0.1276159
0.14358497
-0.030341864
0.04683298
0.122308284
-0.052110136
-0.0788644
-0.10475877
-0.029079124
-0.10253849
0.13734972
0.1371477
0.060060933
-0.14291735
0.05094254
-0.029472046
-0.118067145
0.02711749
-0.07599631
-0.13416468
-0.13890065
-0.094267145
-0.030691601
0.1157532
-0.043170944
0.10478389
0.07748614
-0.059445627
-0.02237755
-0.1341516
0.09972583
-0.036886
-0.109611034
0.028468296
-0.023423284
-0.05453971
0.103171065
-0.12795499
0.019744799
0.061747327
-0.14287591
0.04691516
0.11500156
0.10256089
-0.019450054
-0.009855166
-0.06758934
-0.09390997
0.015134215
0.10817358
-0.13575464
-0.035192482
-0.04618805
-0.03431782
0.003621499
-0.11064721
-0.12682623
-0.1172651
-0.03372324
-0.108170666
0.0988045
-0.10219795
-0.028879445
-0.08600945
0.006164938
-0.04033066
0.03077226
-0.13439725
0.11918876
0.01814574
0.048874125
0.108242035
0.073235415
-0.003712073
0.05107081
0.042460434
0.10702913
-0.1344088
-0.022482138
0.114329904
-0.12121276
-0.12876979
-0.07371151
-0.04076329
-0.14924327
0.1193115
-0.0072606504
-0.11944768
-0.1373026
0.0895904
0.14408249
-0.08557733
0.082431726
0.09536024
-0.122216426
-0.03012228
-0.109522626
-0.10347582
-0.09894356
0.11878516
-0.06759076
0.061722085
0.10828464
-0.052292984
0.13983274
0.06873626
-0.022871502
0.021955341
-0.06990847
0.06399438
0.08614807
-0.1422301
0.097156465
-0.11956809
-0.0968065
0.11458823
0.078566045
-0.054053213
-0.14084364
0.148585
0.007078573
0.042059556
-0.14376548
0.0038354904
-0.08123637
0.02505086
-0.024773657
0.029904267
0.10065724
-0.016075443
0.073721215
0.067163445
0.07380781
0.0713605
0.07873391
-0.005798239
0.1133613
-0.11173213
-0.027153492
0.004322285
-0.07621083
-0.05561883
0.060691573
-0.13068427
-0.012017861
0.016005307
0.084990084
-0.11245667
-0.06277663
-0.071769804
-0.11921924
0.032155275
-0.04840355
-0.062269293
0.029040962
-0.03221616
-0.026976984
0.13102454
-0.06424418
0.075979784
-0.04212097
-0.113466725
-0.034921482
-0.13190697
0.039558697
-0.04479154
-0.12753125
0.116657294
-0.04662051
0.07438997
0.08990764
-0.020036861
0.04463424
0.12973344
0.054058652
0.020642698
0.02191694
0.0027582496
-0.093322754
-0.10652995
0.12360527
0.008005653
-0.0040495303
0.012424327
0.054553717
-0.0010923104
0.08123364
0.037529707
-0.057614684
-0.12703957
0.04035185
0.022694621
-0.09870983
0.11859773
-0.08792418
-0.002454974
0.0514677
-0.10765576
-0.017246194
-0.0001779187
0.12509552
0.091631055
-0.01590547
-0.050877195
-0.03769026
-0.074411154
0.090670325
0.13945976
0.028749265
0.0954579
-0.13557428
0.08209829
0.110172465
0.078920156
0.044111997
-0.031172417
0.037160743
0.081084564
-0.04641165
-0.043777537
0.04944809
0.004383535
0.09085791
0.10489546
-0.1352888
-0.043779407
-0.13001078
0.04001596
0.13835454
0.039891813
0.13134646
-0.11390961
-0.021377169
-0.12636153
-0.027739894
0.09260951
0.011408627
0.015464753
0.028332658
0.00058054924
0.11048034
0.029862285
-0.09545438
-0.10751165
-0.080071256
0.09845447
-0.1472269
0.12275119
0.0528699
-0.014427513
0.10120867
-0.066584766
-0.051766645
-0.08186633
-0.13112803
0.14873894
0.1362915
-0.07425672
-0.007968664
0.031526208
0.01022308
0.046212062
0.041100543
-0.09502584
-0.033756964
0.015195265
0.11107981
0.12596549
-0.1088628
0.05718285
-0.031763986
-0.05052319
-0.025856439
-0.1432537
0.0784031
-0.101477824
-0.086577356
0.11668415
0.008780077
0.12363264
0.10495801
0.12037739
-0.09693294
0.11027057
0.022435255
-0.12769623
-0.024901934
0.04087937
0.12042266
-0.06844679
-0.013231218
-0.07737618
-0.021238953
0.07720411
0.0038786714
0.010382574
0.13348731
-0.08993099
-0.00648929
0.014217213
-0.07864021
-0.004662201
0.12707578
0.121628106
0.06477475
-0.05770173
-0.0058720857
0.0048260093
-0.12701833
0.060015112
0.034052826
0.09373662
0.10730618
-0.052844606
0.086325966
-0.114714496
0.12737769
0.009081613
-0.013135277
0.07003166
0.048988998
0.079787366
0.101662554
-0.09191835
0.09335929
-0.1155581
0.12539074
0.08345498
0.11256354
-0.13176903
-0.06740709
-0.01614299
0.03950477
-0.10107106
0.08463348
-0.015508562
-0.10770383
-0.06025681
-0.12482729
0.09963067
-0.08832888
-0.103245005
0.026973754
0.09752235
0.019701628
-0.10982111
0.062018022
-0.021321684
-0.12996303
-0.09038293
0.13820073
-0.12040408
0.092427164
-0.12084707
0.0996725
0.14606185
-0.059974037
-0.0052494667
-0.032580215
0.12125195
-0.11469039
0.04890384
-0.13898315
0.118594944
-0.14215036
0.027888507
0.06305894
-0.07953511
-0.060769007
-0.10029911
0.03561455
0.13055998
0.14045095
-0.06370911
-0.13320063
0.05316382
0.093896925
-0.12517756
-0.11371204
-0.07101844
-0.009947652
-0.034397
0.1035281
-0.008151654
0.079203784
0.08492906
0.048081312
-0.12930073
0.059852153
-0.08049375
0.0010939772
-0.10258786
-0.034641787
0.060994238
-0.095933884
0.059993416
-0.1108622
-0.03070423
0.13708775
0.09078312
0.1233078
0.09624395
0.043075383
-0.12505078
0.0018641913
0.076534115
0.071639314
0.033437192
-0.12927791
-0.07350076
0.111756116
-0.022655752
-0.026256476
-0.031052979
0.0003542155
-0.03718677
-0.033081293
-0.09852144
-0.10467328
-0.03483199
-0.08245814
0.004390572
0.020258632
0.0080681415
0.018745422
-0.07632404
0.13006882
0.043465793
-0.10711734
0.082627
0.12664162
0.030646205
-0.09170304
-0.02319678
-0.010251358
-0.07204321
-0.044630628
0.036863122
0.016018894
0.046078466
-0.06593859
-0.14201644
0.011640687
0.017663725
0.08013126
0.03997014
-0.051929943
0.041668944
-0.11282277
0.092464626
0.10682774
0.13264833
0.003794728
-0.09377493
0.06841324
0.13681354
0.08195821
-0.10521831
-0.06652113
-0.027395105
0.01291695
0.052567214
0.1015678
-0.0609347
0.15284568
-0.07415567
0.010303795
0.0743781
0.03542589
-0.12908305
-0.14112554
-0.028475493
0.024958182
0.04466603
-0.03451926
-0.06171114
-0.04970167
0.009912224
-0.02117978
0.019628078
-0.12967412
0.07062216
0.13040316
0.13645212
-0.047141127
0.018192967
0.14098743
0.0794703
-0.059249617
0.030581553
0.11181868
-0.022387326
0.08190454
-0.095376775
-0.15194468
0.02481091
-0.13915728
-0.08924374
-0.12757139
-0.10705733
-0.06089416
0.10165216
0.042735934
-0.0925783
0.0021500736
0.07803902
0.13256478
0.072784215
0.048934385
0.0017150342
-0.11005905
-0.0062945783
-0.072986186
0.08751845
0.087062344
-0.06921872
-0.056295455
-0.00871861
0.10737559
-0.015933007
-0.007278025
0.12897906
-0.02150388
-0.013443798
0.0053291917
-0.005723253
0.06120591
-0.016772777
-0.025477313
-0.07431796
0.071055114
0.089990705
0.029153869
0.05535935
-0.04089891
0.13301566
0.08623958
0.123978406
0.035738647
-0.091078214
0.051431686
0.047204494
0.09026067
-0.0717518
-0.11212086
0.011307582
0.074939385
0.039892375
-0.11178739
-0.039774887
0.07613334
-0.029279612
-0.11035259
0.036183015
0.038729727
0.07271585
-0.08659448
0.09268178
-0.0916558
-0.001986578
0.056151196
-0.057352953
-0.1234005
-0.017563313
-0.14265344
0.060964316
0.12197346
0.101255186
0.08173078
0.11021508
-0.07038455
0.018444164
0.016812723
0.09052166
0.089068346
-0.04841664
-0.015658006
-0.061317615
-0.14720042
0.08499398
0.122704096
-0.016787648
-0.061453618
0.12981072
-0.014465131
0.0116653
0.02954033
0.1351544
-0.050603453
0.11610207
0.130026
-0.015906602
-0.096237436
-0.021570608
-0.1400709
-0.015915807
-0.06762854
-0.029341143
-0.032309107
-0.06448221
-0.103882834
0.14406699
0.017189994
-0.11403594
0.07975278
-0.11654253
0.10569078
-0.11355109
0.03412868
0.1267218
-0.13837373
0.0070059053
-0.084561594
-0.015796348
0.12708731
0.08699145
-0.011906609
-0.14083561
-0.027539285
0.038603336
0.05651419
-0.060779296
-0.07120856
0.056552336
0.009992227
-0.017518774
-0.07683811
-0.11685918
0.10743048
0.02353403
0.08285312
-0.13224716
0.11283657
-0.058083087
-0.07615705
0.087175876
-0.13817124
-0.062911406
0.0024464726
-0.121700615
-0.012662485
0.103103414
0.027155653
0.007075399
-0.032822266
-0.0076287985
0.02047266
-0.08014769
-0.03545422
0.08806014
-0.118103825
-0.021926709
-0.03011667
0.124500364
0.054252848
0.08502622
-0.06586908
-0.02812586
0.065296695
0.018717647
0.1374054
0.026642397
-0.0074822903
0.13852698
-0.007791877
0.00046473742
0.12995327
0.10890359
-0.039608948
0.03062728
-0.124478
-0.079523645
0.047947288
0.06817064
0.082715884
-0.040569134
-0.103593856
0.121212006
0.120257884
-0.026979357
-0.060419306
0.066950634
0.13167292
-0.09319804
-0.13724658
0.04284422
-0.018385813
-0.08865669
-0.048314825
-0.07715743
-0.07285432
-0.013510868
0.0016766638
-0.058845192
-0.060156524
-0.10640879
-0.14087334
0.10997233
0.012566477
0.053038865
-0.10955384
0.10393667
-0.058080062
0.12813854
-0.0077905357
0.033011466
0.09086324
-0.03574033
0.068351656
0.05004348
-0.10783957
-0.10606318
0.07513237
-0.06471642
0.14082527
0.063761264
-0.009871513
-0.04173304
0.14357173
0.14297417
-0.106661275
-0.0941042
0.007056713
0.0738409
0.12535352
0.09086096
-0.074728504
0.08962342
-0.028457977
0.06268346
-0.09574586
-0.10228132
-0.12298018
-0.06727205
0.013002694
0.022069693
-0.009799376
-0.07867286
-0.09258257
-0.05160041
-0.070428975
-0.09340458
0.12021896
0.0804528
-0.056752518
-0.07450372
-0.13043481
0.05343476
0.114441544
-0.0989387
-0.09658642
-0.0058110356
0.0047664493
-0.11118545
-0.12489449
0.032205313
-0.127466
0.07959369
0.017742487
-0.054811835
0.11516732
0.09530076
-0.1463192
-0.11859628
0.01940972
0.061712883
-0.038853075
0.06079911
-0.09805623
0.10874084
0.06448453
0.14984114
-0.0981415
0.1255526
0.0660961
0.020247782
-0.07876016
-0.007914528
0.13967863
-0.077727355
0.091593385
-0.062704034
0.004634542
-0.08616173
-0.027403394
-0.08379765
0.09125967
-0.13508937
-0.027868053
-0.0924147
0.04714413
-0.023927152
-0.13286704
0.11694733
0.08745474
-0.028965857
-0.07392997
0.06428437
0.07998739
-0.06988398
-0.12753756
-0.0996469
0.13863927
-0.042233773
0.07593971
0.12521994
0.11330254
0.12372645
0.034781933
-0.05732409
-0.10520825
-0.059586413
0.019717043
-0.09485674
-0.02069164
0.13450652
0.076028824
-0.06510381
0.041065916
-0.012370691
0.088635206
0.050289795
-0.014760495
0.040287945
0.12924132
-0.010305181
0.07070573
0.0147153465
0.07252792
-0.1470018
-0.13397695
-0.056450255
0.10054
-0.07125612
-0.0073425216
-0.10722789
0.06467206
0.055773437
0.06987946
-0.0025290337
0.13263215
-0.018357217
0.078124285
0.06688435
-0.10575528
-0.038345136
0.060709
0.06578563
0.028330997
-0.09260383
0.018871814
0.09401646
-0.07004408
0.094151996
0.1325233
0.042713314
-0.053711392
0.11942055
-0.016404329
0.11125192
-0.09992538
-0.118681364
-0.14122678
-0.037900522
-0.04873266
0.11994218
0.10869035
0.116752155
-0.08874626
0.063786305
0.019216739
0.11271954
-0.07731559
-0.097790174
-0.06905599
0.03341359
0.0989841
0.08640389
-0.13795125
-0.11216663
0.13219666
0.031981558
0.117700815
-0.002030313
0.1048073
-0.0236252
-0.104943454
-0.040353663
0.034126952
-0.14384557
0.04604329
-0.07709536
-0.14534315
-0.10518695
0.049337056
0.08508468
-0.03078159
-0.0046059024
0.14470063
-0.07982624
-0.075916864
0.13495806
0.09947969
-0.02806465
-0.025676602
-0.112729
-0.120219246
-0.0015501413
-0.09527602
-0.046226658
0.090591505
-0.12272814
0.13809861
-0.09048697
-0.09498083
0.13814037
-0.13038832
0.03661029
0.13391784
-0.14365351
0.035594862
-0.037414372
-0.1242915
0.0041839
-0.12160195
0.13392407
0.07778801
-0.020889372
-0.042759947
-0.11516091
-0.099549636
-0.060578678
0.01346464
-0.010513702
0.005986643
-0.069936305
0.053128093
0.11478254
-0.13108376
0.030556262
-0.12990357
0.03558661
0.014782525
0.13947728
-0.073840454
0.0053409934
-0.100886464
-0.026085317
-0.086882934
-0.010518357
0.045126513
0.026180267
0.001249969
0.042690292
-0.02281817
0.059220955
0.13935935
-0.08127399
0.02448757
0.006368324
-0.06989269
0.042279795
4.7668815e-05
0.021874681
0.11460048
0.014786333
0.0011112839
0.0140443
0.09158322
-0.09565397
-0.0258075
-0.13473558
-0.13373193
0.019774154
0.07741569
-0.0043605715
-0.087673515
-0.12605011
0.11945787
0.11461392
0.110764176
0.021554127
0.11038479
0.008557975
-0.04127638
-0.039284877
0.11861801
0.083754554
0.111769855
-0.032421462
-0.010231808
-0.05107473
0.0786199
-0.10539247
0.085191116
0.06836149
-0.096217416
0.055668622
0.040635988
-0.1123198
0.119391024
-0.10328693
0.09240331
0.13040069
-0.026351877
0.004082039
-0.04402899
-0.09928731
-0.008907884
0.10109143
0.032428205
0.023328751
-0.10084641
0.12566166
0.13311894
-0.09758723
-0.004886821
0.013644125
-0.11965799
-0.12413757
0.00020577262
-0.061416976
0.09505432
0.07598893
0.024824291
-0.0065755057
0.016474446
-0.004590711
0.11599802
-0.09482232
0.056752183
0.11565017
0.11193312
-0.09394972
-0.04870592
-0.10378105
0.03769472
0.11393079
-0.058193564
-0.041561663
0.0101985
-0.08989954
-0.01946523
-0.075290985
0.08129137
0.097726926
0.13431859
0.0034309924
0.0076847873
-0.12161448
0.08292165
-0.11521392
-0.022132745
-0.10149105
-0.08995178
0.0035025924
0.09448157
0.010591202
-0.124992326
0.10030651
0.14701599
-0.11162653
0.08677593
0.038154915
-0.09627451
0.076759204
-0.09826237
0.13152346
0.13625494
-0.035050876
-0.013445412
0.117259085
-0.06880872
0.11194518
-0.10184514
0.0042912364
-0.11960034
0.09656455
-0.015369256
-0.056917794
-0.12881938
-0.049092036
0.013563105
0.060827773
0.0040208525
0.1133371
0.1348004
0.028041856
0.087270826
-0.02302601
0.026872223
-1.032535e-05
0.0895474
0.05723995
0.112887725
0.05986872
-0.13841777
0.045825988
-0.112205714
-0.06861882
0.10223121
-0.14148588
0.11882441
-0.08813613
0.15267693
0.04627973
0.05894135
0.015251888
-0.040299125
0.14036827
-0.057166092
0.110431045
0.13741599
-0.13067575
0.091882505
-0.07903108
0.07562729
-0.0059647486
0.015580818
0.014127672
0.0032907128
-0.013251735
0.11640456
0.1433245
-0.047399446
0.08366901
-0.068813294
0.05369292
-0.121267974
-0.13424094
0.029934676
-0.024796866
-0.14196484
-0.08526273
-0.10599564
-0.13893734
-0.04025907
-0.0014268905
0.10035132
-0.11291242
0.059662532
0.06092308
-0.110630475
0.016547823
0.049654886
0.12544727
-0.08588192
0.079233065
0.12443148
-0.043524176
-0.015502945
0.10258801
0.00094655156
0.10480766
0.071194
0.10687071
0.01197478
0.054665357
0.007583701
0.14341135
-0.07031799
-0.08791241
-0.124001175
0.016527593
0.009758681
-0.12852521
0.020414045
0.09212743
0.13805056
0.018788993
-0.0013307482
-0.019078175
0.121132314
0.054131564
-0.06654691
0.0041066855
0.06070806
0.13240457
-0.083060734
0.10853526
0.030863363
0.060704567
-0.07135843
0.012722328
0.013412923
0.044204086
-0.093183994
0.09143708
0.08757065
-0.0027393252
-0.06915682
-0.12436725
-0.11583544
0.06629157
0.02285017
0.01488775
-0.13501766
0.01897055
0.06272524
-0.066162
0.087889835
-0.005703196
0.057997853
-0.104967065
0.1421646
0.13066521
-0.033997364
0.0710426
0.0139606
-0.13868049
-0.07615928
-0.07635093
0.081162974
0.11299643
-0.055513836
0.006338656
0.020664558
0.042767078
-0.1390935
-0.037408523
0.13143247
-0.042575225
-0.015028149
0.027060747
-0.025038652
-0.13907692
0.14404076
0.021693185
0.12282503
-0.07273842
0.063350335
-0.08753941
-0.06878973
-0.013363063
-0.013015106
0.13602296
0.05084175
-0.01796177
-0.112039745
0.020532995
-0.028188005
0.12453398
0.054041177
-0.07537946
-0.094472446
-0.04194144
0.10633987
-0.018116042
0.056949943
0.014212504
-0.14122108
0.020294607
-0.13734248
0.05642891
0.02576001
-0.07452895
-0.038944468
0.11193296
-0.14321268
0.016292408
0.08221407
0.1390785
0.056585312
0.14291254
0.028563857
-0.08917013
0.088931724
-0.0940882
0.12547806
0.095098935
-0.119759105
0.0634025
0.02822283
0.03918601
0.06117138
0.13379091
-0.09700249
-0.014864621
-0.07018388
0.02263106
-0.09281637
0.09163266
-0.07388996
-0.11463733
0.04443459
0.0051404387
0.12423847
0.04138729
0.04132252
0.102377295
-0.039969526
-0.14030635
0.005794617
-0.06633737
0.10753287
-0.13206725
0.041550267
0.036913082
-0.058196552
0.109298326
-0.1451573
0.013021616
-0.015155032
0.14244929
0.02841103
-0.014403435
0.0039787707
0.11524398
-0.0906009
-0.086475275
0.030056477
0.028995499
-0.027556874
0.082748
0.096406415
-0.044054728
-0.05330231
-0.087896906
0.09983917
0.088695996
-0.027545623
-0.1248309
0.034950785
0.07543947
0.1197509
-0.061813883
-0.13800038
0.05523409
-0.007661894
-0.0927047
0.03578143
0.020601511
0.12981065
0.05736208
0.01060766
0.051978752
0.03604567
0.14216498
0.09348449
-0.10025579
-0.10139244
0.043899283
-0.02445446
-0.12279642
-0.04680507
0.016094461
0.11383289
0.13464695
0.12700686
0.014157921
-0.04351473
0.075768635
-0.08984008
0.07514538
-0.034378685
-0.11589077
-0.1144613
0.035249084
0.00868839
-0.11843677
-0.08110708
-0.09458192
0.12594426
-0.0033431351
0.010211468
-0.002814889
-0.1161084
0.124403596
0.10713184
0.092407376
-0.10382432
-0.12694421
-0.061501823
0.04260519
0.08301011
-0.01650855
0.06587559
0.07661195
-0.09463783
-0.0124934465
0.041157722
0.06940007
0.12572569
0.07842933
0.0694232
0.11265409
-0.060254745
-0.041657746
-0.116210505
-0.09193739
0.0028115213
-0.040427558
-0.09910017
-0.0957323
-0.04344693
0.052393258
0.057063192
0.11014934
-0.04289344
0.03310748
0.02068314
0.117997326
-0.09455477
0.14314698
-0.099620625
-0.03748563
0.0038924671
-0.023040142
-0.12080922
0.0077877627
-0.052801248
0.05991851
-0.011027167
0.11516601
0.061151393
-0.032531
-0.058727805
-0.12058354
-0.03382361
0.078603625
-0.07018626
0.033068314
0.07547833
0.0033789873
-0.04747259
0.010143951
-0.054763086
0.13768275
-0.011059774
0.1264534
0.042627633
-0.051224247
-0.07350125
-0.122648284
0.11106918
0.05116432
-0.018863829
-0.034406997
-0.0042116046
0.09789617
0.06333451
0.04329082
0.08001162
0.09484898
0.14555514
0.043291446
-0.12658061
-0.042320225
-0.12443949
0.11967806
0.10104998
-0.10862827
0.034417007
0.02498886
0.08796699
-0.024189763
0.025613755
0.030591741
-0.12111212
0.0054133385
0.08064865
-0.10334603
0.10929757
-0.08583445
0.11230904
-0.02141182
0.09054882
-0.015736079
0.002901457
-0.04940399
0.063227594
-0.02927695
-0.015075341
0.04840263
0.03469416
0.09228325
-0.024349373
-0.10152651
0.09465326
0.10712836
0.064040795
0.064211965
-0.07395608
0.070280306
-0.03010376
-0.070442535
0.039564524
0.04289949
-0.11099521
0.026904747
0.13271105
0.078033745
0.06474391
-0.055846393
0.13106835
-0.118854746
0.116303936
0.114171796
-0.012084136
0.09570611
0.07027635
0.05077247
0.013111874
-0.08978491
-0.08824739
0.038299475
0.113553524
0.011153883
-0.0053019887
-0.0733015
-0.027198004
-0.120967925
0.08429092
-0.02221092
-0.042679526
0.095560744
0.06741988
-0.059675165
-0.113157265
-0.027055793
-0.1344215
0.076091975
-0.06734569
0.13618702
-0.08571234
0.008333191
0.03403105
0.070436314
0.011864215
0.036531553
0.0133515
0.007492408
0.066902295
0.11048332
-0.0028637946
0.059774414
0.0008379519
-0.07671584
-0.0143921375
-0.12410854
0.13343966
0.020080358
0.1374901
0.055979237
-0.08510654
-0.09338386
0.07469636
0.032177716
0.056572616
-0.086625785
-0.08882332
-0.055225074
-0.07367462
-0.054300576
0.134761
0.033848315
0.052084774
-0.05911427
0.14368808
-0.12305004
-0.06868081
-0.0021121502
-0.026121967
0.13340524
-0.058018632
0.09129363
-0.03617689
-0.051194653
0.077694
0.10555491
-0.07829181
-0.0059473515
0.11656058
-0.0648645
0.05595094
0.048232853
0.031681284
-0.08998495
0.088316515
-0.011951208
-0.13977268
0.08342065
0.11938265
-0.05954092
0.074201584
-0.14328842
-0.015672699
-0.11173175
-0.05156225
0.08767609
-0.06931813
0.12887764
-0.0687507
0.0972414
-0.07627302
0.049003497
0.09620114
-0.116509795
-0.012137517
0.08568123
-0.09156333
-0.117320694
-0.108997285
0.085964784
0.0664095
0.058454126
-0.08497986
0.025112018
-0.004439354
-0.09727867
0.051558435
-0.104200035
-0.007098496
-0.049056247
-0.09316211
-0.07849168
-0.012950823
-0.097479366
0.07578109
-0.13207217
0.13349235
-0.04763472
-0.023985006
0.0107856095
0.0017405003
0.13499248
0.14088571
-0.019008398
0.0077066272
0.12165207
0.057325765
0.13038856
-0.024494074
-0.07486568
0.0437499
-0.049607605
-0.053083092
-0.0462365
0.079841584
-0.106666334
0.1424728
0.13354167
-0.123799585
0.109268725
-0.073254265
0.05541207
-0.09276516
-0.12340287
-0.025335431
-0.12994361
-0.07629993
0.08545406
0.13358662
-0.07817479
0.05954475
-0.065054074
0.06375025
-0.14474049
0.07901528
0.12639831
-0.13181789
0.09908546
-0.062333092
-0.005577004
-0.041118324
0.14541739
-0.103815354
-0.10995813
-0.047853958
0.13840881
-0.05445672
0.07263972
0.084924415
0.14313275
0.078202754
-0.120762005
0.09070936
0.044830427
-0.07078395
0.05808653
0.10640564
0.0033121556
0.068580806
0.021112734
-0.111918405
0.14862601
-0.060069636
-0.04026661
0.11744568
0.07375898
-0.05636771
0.0373203
0.09488135
0.10406276
-0.14416616
0.03905146
0.055108592
0.052066844
-0.04385651
0.06296124
-0.09573036
-0.07297677
0.08498585
-0.05856658
-0.13449724
-0.079675145
0.020711934
0.02635029
-0.037895814
-0.11918463
0.12208151
-0.10215737
0.026035622
0.108070135
-0.0853138
0.09661196
0.120623514
0.12650515
-0.121848576
0.14015538
-0.13315246
-0.10371437
-0.04663697
-0.046838302
-0.0827827
-0.046302002
0.13832276
0.10160308
-0.02980616
-0.04678323
-0.13195936
-0.0061815316
-0.0670093
0.07075001
-0.11674186
-0.07722212
-0.09651129
-0.12839451
0.036234915
0.015476625
-0.08684122
-0.113400705
-0.14364652
0.11630452
-0.10099077
0.11658841
-0.08522688
-0.05141581
0.07663137
0.102941856
-0.09646446
0.124997884
-0.085459284
0.0015869429
-0.06186938
0.11381496
-0.043362364
-0.012825552
-0.063485615
0.01873906
-0.014399394
-0.09086343
-0.044072278
-0.062739745
0.06486866
0.124330245
0.0964557
0.06297462
0.031135395
-0.1446439
0.10325543
0.10576558
-0.006138938
0.101409376
0.098079026
-0.0050414354
-0.003790319
-0.123673804
0.10811639
0.083903745
-0.055070173
0.07352366
-0.02025746
-0.09056414
-0.0585339
-0.054782838
0.07941051
0.14111264
-0.12938203
-0.104185365
-0.06896947
0.024163784
-0.14210849
-0.013622551
0.040493958
-0.058241
-0.038735848
0.09186803
-0.006551954
0.05406563
0.09938335
0.019628242
0.035179064
0.0679395
-0.015067105
0.08676465
-0.043605667
-0.026114397
0.09821369
0.057641163
-0.112886444
0.03352228
-0.13292554
0.05641358
0.03311126
-0.040239356
-0.0065611727
0.07219031
0.06032149
-0.0128596015
-0.14070189
-0.030663954
0.0305098
-0.13221298
-0.011715829
0.017716926
-0.041276276
0.03355883
-0.09321045
0.0074610924
-0.07712734
-0.11140817
0.05452481
0.10279865
0.019605601
-0.13568282
-0.10564099
-0.05253169
-0.018760277
-0.03106071
-0.01346086
-0.12310217
0.03194399
0.11859012
0.010627669
-0.13780814
0.09933829
0.07780746
0.028175682
-0.13953374
-0.14476103
0.13823752
0.06840383
0.04041298
-0.06680391
0.11860555
-0.08739715
-0.12013145
-0.05834611
0.0299981
0.10825805
-0.043891788
0.010565558
0.093419276
-0.009575929
-0.012097597
-0.0908154
-0.06746717
-0.04076409
-0.062742546
-0.01736421
0.038285047
-0.0651528
0.13957745
-0.14392206
-0.100431524
-0.12801327
0.029673465
0.14273304
-0.016394094
0.021688314
0.12335905
0.1148902
0.123457365
0.062411793
0.03033119
0.11789942
-0.08715832
0.07812907
0.056263685
-0.0156125575
0.06578676
0.028566945
0.044892043
0.15197596
0.04309013
-0.09828452
0.06394848
0.022708466
0.07642901
0.13222048
-0.01849714
0.081326954
-0.08858611
-0.052714393
-0.0043329746
0.07008499
-0.032767102
-0.0022706676
-0.034142654
-0.11134463
0.020213291
-0.08045637
-0.050455976
0.06743484
0.14398229
-0.13108772
0.093801595
0.10430783
0.029582646
-0.124615066
0.032295283
0.07791309
0.0017021694
0.115339965
0.042966604
-0.08952202
0.059821814
0.03994474
0.11521998
-0.1316172
-0.09258872
-0.03924325
-0.05272024
0.03472684
0.042180195
0.13002451
-0.10218373
-0.12979057
0.13681708
0.11544478
0.14357355
-0.13134795
0.07036425
0.10755956
0.06652496
-0.03018673
0.06964367
0.107262745
-0.08546295
-0.093220994
0.07376771
-0.09703018
-0.05849917
-0.012756705
-0.08760552
0.06570531
0.123161085
-0.042230032
-0.09424605
0.07355444
-0.008798259
-0.1444164
-0.04287702
-0.035858367
0.08811717
-0.038671236
0.114804745
-0.041205183
0.120143056
0.08826174
-0.13388145
0.1460309
-0.083476424
-0.016947055
0.05149555
-0.026461624
-0.0145192295
-0.069750324
-0.076383255
0.08587545
0.05314097
-0.102535725
0.079161845
-0.039171696
0.13187766
0.1378693
-0.062028416
0.113032214
0.07662141
-0.10547959
-0.005713558
-0.0119570065
-0.006812632
0.09128177
0.058950562
-0.06900301
-0.09730551
0.0009317091
-0.062436648
0.020226384
-0.034103073
0.031797186
-0.08248799
-0.046435963
-0.11224879
0.059246004
0.0055978894
0.10591694
0.11667924
-0.006632593
0.10462912
-0.06838502
0.086444706
-0.02434665
-0.094313666
0.0038072616
0.12094859
0.027246743
-0.10192484
0.09633266
-0.13278283
-0.032978646
-0.0049547143
-0.005825743
0.05239669
-0.04230862
0.019717574
-0.0018195808
0.078650594
-0.010929956
-0.09611514
-0.13888566
0.015286565
0.07857984
-0.13207534
-0.09144913
0.1274429
-0.086182624
-0.09010891
-0.09899376
-0.036967352
0.0489261
0.122522086
-0.023648202
0.046577215
-0.13001253
0.04080029
0.09336546
0.1254895
-0.13836816
0.12844235
0.03472732
-0.09367562
0.027519807
0.0117982775
-0.108967274
-0.03300208
-0.044927746
0.044335917
0.08629903
-0.035792537
0.00873141
0.13493341
-0.093787596
-0.035179302
0.07365869
-0.110174336
-0.02679997
0.12807211
-0.06393969
0.054378495
0.08055735
-0.123945184
-0.07375813
0.119573
0.11612517
-0.019515924
-0.028721265
0.06532797
-0.044440463
0.12677193
0.12202704
0.12081194
-0.0054597557
-0.087008975
0.087531805
-0.032052077
-0.12177846
0.08862503
0.032170773
0.00573574
0.014501125
-0.007428378
0.053633794
-0.006523758
-0.0075912476
-0.067541435
0.013796762
-0.026498064
-0.12086025
0.12040844
-0.12740095
-0.12737577
-0.045321845
-0.07492878
-0.0772089
-0.055636823
0.074074574
0.064044885
-0.079614654
0.11211819
0.035202324
-0.08157924
0.07941487
0.05608534
0.06194941
-0.0091106
0.11707085
0.057358984
-0.023076396
-0.13789862
0.07710113
0.03366067
-0.047878895
0.13376448
-0.098078884
0.05723113
0.01983502
0.08203922
0.033832043
0.014735402
-0.10945119
-0.11466337
-0.016656458
-0.10326783
-0.037743863
-0.006811888
0.119644925
-0.030214168
-0.13944295
0.12581886
-0.10694986
0.03371848
-0.10898331
-0.13132553
-0.13452518
-0.10620034
-0.08214915
0.011983798
-0.05731036
-0.09036202
0.04322122
0.13535522
0.10004643
-0.091228455
-0.021919725
-0.07545193
0.10332845
-0.046880946
-0.07221266
0.13047022
0.060340494
-0.0014079958
-0.084433265
0.056745548
-0.12200969
-0.06129761
0.06923196
-0.06286003
-0.045497622
0.048823696
0.04456505
0.030062072
-0.04412108
0.08968055
0.14254197
0.11975652
-0.13112673
0.080913
-0.10267968
0.074114785
0.05771975
-0.079217486
0.06317387
0.13534048
-0.05955685
-0.0032051115
0.11822641
-0.01420407
-0.03428021
0.07162127
0.043609094
-0.08552592
-0.06992841
-0.0864486
0.062903255
0.0060984213
-0.0452111
0.10775116
-0.100833796
0.08826416
0.1259537
0.080151
0.118316345
-0.042086456
0.13132313
0.045528084
0.06447083
0.03453585
0.09352423
-0.10132356
0.0699649
0.14654414
-0.091041446
-0.029508444
0.100632265
0.10423205
0.07034498
-0.062829025
0.1020642
-0.108088195
0.13533126
0.0039605945
-0.13853692
0.118712455
0.008736029
-0.013386115
-0.012403967
0.07477868
0.08039967
0.050599877
0.048513412
-0.09296346
0.100731455
-0.04097312
-0.09473673
0.024095578
-0.13724521
0.056636732
0.11848754
-0.07552267
-0.0741832
-0.078512244
-0.007591237
0.01232335
-0.09490301
-0.049242184
0.09395175
0.06751205
-0.12619674
-0.078214005
-0.020717975
-0.011702538
-0.0005123468
0.12474233
0.023933718
0.023791462
0.04918006
0.11634065
0.101280876
-0.040360183
-0.08402972
-0.111342646
-0.07395528
-0.060754497
-0.08042467
0.062750354
-0.0774576
0.04854332
-0.014286667
-0.088282526
0.12627241
-0.018444015
0.0033711046
-0.1024722
-0.0030994478
-0.11447894
0.037813447
0.09149904
0.023402125
0.030612808
0.09190895
-0.1302264
0.0827186
-0.058751836
-0.07903691
-0.060186774
0.12288687
0.021720752
0.016203895
0.1117394
-0.0058707297
0.05982876
-0.02462658
-0.02019449
-0.030483782
-0.03440453
0.11705488
0.07749904
0.030537471
0.07654658
-0.086499944
0.02659543
-0.06283532
0.010190949
-0.033642918
0.06582927
0.089562796
-0.092194736
0.034211412
0.10533573
0.043326274
0.002213046
0.02449879
-0.020852488
0.077087685
-0.045531347
0.058384947
-0.104133144
-0.117568776
-0.060240462
0.13218701
0.04893081
-0.14533935
0.020712048
0.0039556473
0.0017607659
-0.11047875
0.14221059
0.08559951
0.074744806
0.05419542
-0.0014040649
0.13521668
0.09353611
-0.13397492
0.076217495
-0.09270856
0.13940017
0.017769022
-0.06946857
0.032106873
-0.03800679
0.08800918
0.12099965
-0.014460483
-0.019414268
-0.026895307
0.13804832
0.025442012
-0.054388776
-0.08389397
0.123312324
0.13246888
-0.14320119
0.034969814
-0.049495026
0.08855625
-0.04217325
0.008801162
0.1274837
0.055085827
0.04169172
-0.07809133
0.087373234
0.10430927
-0.041317955
-0.085941285
-0.00025913847
-0.13687582
-0.09140426
0.11750986
-0.12150394
-0.1166169
0.02795768
0.10570746
0.013618499
-0.09900974
0.05480869
-0.05669403
0.08361673
-0.11885991
0.038722917
-0.12300206
0.12602773
0.11911684
0.10182884
0.007285583
0.08084722
0.10108338
0.09609707
0.04692238
0.14607878
-0.10839893
-0.0146839805
0.055018306
-0.11138056
-0.12968574
0.07816659
-0.058213793
0.14168914
-0.054484688
0.025854252
0.02718641
0.024083346
-0.006938482
-0.03504173
0.11542985
-0.014029835
0.06616585
0.026060268
0.048867483
0.06473641
0.113955066
0.12097478
-0.11160876
0.045028776
-0.037189864
-0.10964909
0.0049959477
-0.1222573
-0.05443796
0.04932285
-0.050204292
0.13585247
0.123698354
0.023210615
0.028356127
0.023978718
0.10822753
-0.055753004
-0.012517467
-0.10516822
-0.08304206
-0.0755037
-0.11194166
-0.12362425
-0.133701
-0.12153495
-0.0892448
0.055979714
-0.030882455
0.05077001
0.10547383
0.036894053
0.1451696
0.021034941
-0.122217305
0.033822447
0.12176356
-0.06432802
0.09257693
-0.06504831
0.05696623
-0.030898906
-0.06484144
0.013988157
0.1326668
-0.065361135
-0.14709954
-0.15086266
0.047741234
0.07597326
0.026162744
0.14571093
0.033985972
0.063108526
0.13178024
0.08538051
0.12468661
0.13471232
0.124908954
-0.061466336
-0.103617065
-0.11888372
0.012072064
-0.010466084
0.011967398
-0.11304395
0.10426508
0.11120674
0.05610226
0.060577333
0.03114693
0.04856758
-0.0334105
0.13834246
-0.12307733
0.08472754
-0.003230606
0.04248592
-0.1221039
-0.0045349635
-0.10843466
0.0018335803
0.12984583
0.12332614
-0.08620604
0.069702
-0.12958924
0.06821059
-0.015638448
0.0443999
-0.11303131
0.05956219
0.031368256
0.09046692
-0.015693828
-0.0350943
-0.08641982
-0.056062408
-0.08874472
0.0936262
0.09104143
0.11834493
0.122811325
-0.12647879
-0.14266957
-0.11199333
-0.024625236
0.043608356
0.07325123
0.08815906
0.08634154
0.0157626
0.11963001
-0.0664531
0.035733894
0.030211398
0.08798967
-0.1338132
0.1249798
-0.0072835297
0.12533405
0.06402998
0.1129736
0.07677522
0.08605391
-0.13398005
0.028302623
-0.049171217
-0.09916339
-0.13447157
0.009586498
0.059513077
0.13971204
-0.082149446
0.09007949
0.10055897
-0.11694625
0.054016054
-0.007506281
-0.13099691
-0.0599102
-0.03162753
0.012819782
0.11836752
0.06634766
-0.11795478
-0.11176513
-0.025213398
-0.046768896
-0.0871862
0.102926046
-0.06720629
0.08983478
-0.054802626
-0.009866178
0.09523566
-0.04887145
-0.09605262
0.02770254
-0.08131456
-0.01970192
0.09223324
0.07029088
-0.0866198
-0.069479495
-0.12091215
-0.027007751
0.050068498
0.014161706
-0.041092925
0.05781983
-0.009939775
-0.14012283
0.1392357
0.017307237
0.07371943
-0.120819025
0.009658486
0.025330126
-0.062040627
0.094914615
0.049828157
0.035262197
-0.020279303
-0.042565413
0.06609838
-0.12752505
0.031813562
0.08762513
-0.09932991
0.1119529
-0.085266106
0.0025860518
-0.017589152
0.026486605
0.10682696
0.066035464
0.12781727
0.012445539
0.031484663
0.098909155
0.014134559
-0.029475145
-0.11096734
-0.11472932
0.07660688
-0.07733421
0.07622469
0.111082025
-0.08022407
0.051452205
0.099487744
-0.09493543
0.11127024
-0.12993814
-0.13590705
-0.12850551
-0.048121184
-0.019320963
-0.13105129
0.12090227
-0.11637047
0.119066514
0.12975651
0.04657605
0.07018709
0.03820517
0.062180966
0.12041578
-0.14699754
0.12269487
-0.0021980167
-0.08923909
-0.015206754
0.1098023
-0.07497986
-0.03657387
-0.033295356
0.07136359
-0.03701633
0.069019884
-0.06851793
0.12199268
-0.07238749
0.117853135
0.113432445
0.05674307
-0.034899358
-0.10766468
0.09586873
-0.030938305
0.026515711
-0.06726692
-0.12447015
0.05332811
-0.054058693
0.14496915
-0.075393535
-0.080710545
-0.10806497
0.020450637
-0.04402878
0.1512948
-0.040144026
-0.09426142
0.01154995
-0.006579548
-0.03062629
-0.07280617
-0.11324491
-0.012375653
-0.09429574
0.14193916
0.014830962
-0.089472726
-0.060689546
0.124952555
0.100590795
0.11945674
0.1106002
0.14375421
0.084074765
-0.1337861
-0.016673803
0.110161096
-0.042384952
-0.121136725
0.07063025
-0.068300374
-0.03588015
0.04672034
-0.12442321
-0.13431333
0.040089935
0.09021163
-0.020828836
-0.020056337
0.0800693
0.009372011
0.094326854
-0.08820413
0.0712277
-0.11083196
0.07920337
-0.13056472
0.12865347
-0.08378371
-0.008850887
0.07691784
0.010865867
0.08002111
0.08187775
-0.08231959
0.03589444
0.04476057
0.13677323
-0.0286863
0.10131949
-0.03959728
0.10692218
0.029836312
0.029745534
0.08651006
-0.1085835
0.078706756
-0.0061754435
-0.14133333
-0.09608035
-0.04172323
0.032549754
0.09497701
0.012361884
-0.06906503
0.101124644
0.11122528
-0.063669346
0.10100633
0.12671164
0.01571545
-0.12158185
0.11886603
-0.07895309
0.11560017
-0.13330476
0.075929895
-0.057764083
0.10634649
-0.13223329
0.06103368
0.024473637
0.0078035444
0.049044684
0.016061842
0.13581973
-0.14043613
0.104542896
-0.082767464
-0.08905918
0.035276443
0.0876846
0.09514257
-0.026563622
-0.12935846
-0.12187113
0.080972806
-0.13690668
0.00898166
-0.047850594
0.10879347
0.12741646
-0.0876887
-5.51641e-05
0.0031344444
0.040244132
0.103380114
-0.070802696
0.055930406
0.13990241
0.10746518
0.13989136
-0.08575608
0.023691222
-0.05027879
-0.064560875
0.0062118173
0.08069974
-0.13031839
0.044505537
-0.12205331
-0.026293412
0.14117801
-0.0032201752
0.046799146
0.14982474
0.14281365
0.13638891
0.088975005
0.009549599
-0.040579528
0.0927244
0.028868388
-0.013333174
0.14254999
0.046223193
0.040940855
0.056868542
0.039291784
0.047830433
0.08734411
0.02654229
-0.05307702
-0.11227024
-0.0387583
-0.009631269
-0.11355807
-0.06970751
0.14480653
-0.043211207
-0.07799933
-0.08191293
-0.086962655
0.012685085
0.111696176
0.05444274
0.11887935
0.046308562
0.017705424
0.053829297
-0.08363934
0.12612055
-0.02467242
-0.071055345
-0.05995597
-0.09829694
0.10277322
0.026087994
0.08580531
-0.119300336
0.14221615
-0.093001686
0.1517719
-0.07537732
-0.074711986
-0.13137874
-0.11879964
0.05727209
0.01243756
0.025429204
-0.0072865635
0.04510349
0.046950042
-0.063231066
0.0041938126
0.110135764
0.13895175
-0.01559701
0.12493407
-0.006608321
-0.08264912
0.007381238
-0.03924104
0.1227731
-0.017321423
0.008538809
-0.0488524
-0.11651336
0.07296385
-0.102292135
0.061082702
-0.07884373
-0.1232951
0.09732726
-0.09928594
0.026703961
0.05805737
-0.029047117
0.0138864815
-0.12698157
-0.09659946
0.0017289668
-0.11826332
-0.080152504
0.028510578
-0.12722166
0.042211235
-0.04315669
-0.12309569
-0.029675769
-0.10150431
0.05872172
0.0043158988
-0.051809605
0.036345497
-0.12067484
0.031106863
-0.034539953
-0.10443267
0.060871482
-0.11793355
0.11139288
0.13813797
0.029165087
-0.001656952
0.106320314
0.05952891
-0.0105896685
0.030136764
0.08810178
-0.00014292468
0.13997397
-0.11023871
-0.084383905
0.12609373
0.004879862
0.091126665
-0.10416067
0.12374893
-0.02847676
0.012405628
-0.09524477
-0.1247032
0.11206826
0.14010128
-0.030679762
0.13191235
-0.113484554
-0.14564851
-0.064353816
-0.026549442
0.09701589
-0.10513913
-0.10718073
0.14189932
0.08144752
0.09657205
-0.00042702258
0.102183685
0.09489026
0.10130802
0.034435406
0.08168928
-0.040862825
-0.076009765
0.05205366
0.07345112
-0.101420656
0.024226058
0.14047945
-0.096692175
-0.089983955
-0.049385533
0.022755034
0.13380364
-0.13072845
-0.099752724
0.05878551
-0.0336341
-0.106021024
0.09779584
0.086887784
0.028086275
-0.0332058
0.020089865
0.11337065
-0.11408565
-0.11880371
-0.103968315
0.1343767
0.044749897
-0.039794624
0.108409435
-0.008570684
-0.0945366
0.052239776
-0.07594793
0.053786516
-0.0556198
0.04920253
-0.0034565926
0.075112894
0.042053252
0.07398811
-0.04857941
0.09693049
0.07142347
0.1369254
0.08284682
-0.02082467
-0.10516955
-0.037725642
-0.09403472
-0.028097533
-0.082855664
0.14056048
0.1003412
-0.024544552
-0.09270601
-0.083009005
-0.02373042
0.048649803
-0.040532134
0.05907397
-0.14024107
-0.0321133
-0.1328384
-0.056538127
0.042506605
-0.102759
0.046699136
0.06590763
-0.109593615
0.11546594
0.06915429
0.028697342
0.013706505
-0.11902623
-0.014207795
0.04841283
-0.133763
-0.049595214
0.120247155
-0.07251432
0.03545384
0.086195245
-0.0816752
0.061540604
-0.12699997
0.06546521
-0.13159429
0.036326453
-0.010448992
-0.088345915
0.12602723
0.08811824
-0.03873837
-0.0626095
-0.13220835
-0.054446213
0.057580084
-0.015609175
-0.046991862
-0.06969674
-0.11509481
-0.13369483
0.1275329
-0.14002785
0.055960953
-0.049428407
-0.057669587
0.1459165
0.022215739
0.037030216
0.10516688
0.08111518
-0.12408524
-0.078209676
0.009584807
0.006225046
-0.0481005
0.14026313
0.10504745
0.003367892
0.103683636
-0.027152285
-0.1321191
-0.10108636
-0.09902932
0.03153409
0.11979446
-0.0573252
0.039342538
-0.08045104
0.13856182
-0.025540084
-0.029865762
0.0031563044
0.12440306
0.0344452
-0.042161077
-0.06027091
-0.06034153
0.0425511
-0.011200408
-0.04460893
0.039848126
0.1416033
-0.104460165
0.026749648
0.008327171
0.011707738
-0.05135794
-0.12649834
-0.12411467
-0.02155269
0.14433134
-0.09333951
-0.06154167
0.006249277
0.0015512258
0.1352606
-0.14491862
0.110810935
-0.071711555
-0.0020442605
-0.102205165
-0.12360484
-0.039605126
0.0074261427
-0.08082913
-0.112583086
0.10616274
-0.09651698
-0.09987012
-0.020357339
0.11680147
0.11673395
0.107042216
0.04193082
-0.1093435
-0.057621438
-0.04918978
0.11487916
0.124620676
0.10767803
-0.009972101
0.09135768
-0.10231959
0.031080604
0.069231704
0.11684254
0.093281604
0.13649958
0.113206685
-0.041995935
-0.103186436
-0.08405784
0.029799951
-0.12349765
0.07089575
-0.0824901
0.1040013
-0.036971588
-0.013517006
-0.027183093
-0.04572203
0.13358542
-0.082683995
0.025380379
0.14308861
0.07003326
-0.11890967
-0.12425027
-0.09422292
0.12890774
-0.1210669
-0.02534486
-0.03574632
0.005267609
0.06451228
-0.059368007
-0.03501641
0.08714997
-0.0850831
-0.07310526
0.11592092
0.0317681
0.13782787
-0.022157237
0.002486468
0.121153116
-0.05758187
0.14151302
0.008770779
0.087723106
-0.018801557
0.0009294843
0.022486346
0.038403314
0.14190078
-0.108818404
-0.14704767
0.10584613
-0.03914678
-0.06208131
-0.13229108
0.058526266
0.035355255
0.006941676
-0.10473378
0.100789435
-0.08846801
0.047906205
-0.057294175
0.12682456
0.08228111
-0.061733387
0.06237437
-0.006199329
0.00456509
-0.012596622
0.122157186
0.09595606
-0.11003207
-0.078585595
0.010738328
-0.11724929
0.099122666
0.049336776
0.07045981
-0.04677674
0.007390461
-0.021424675
-0.11828108
-0.10710121
-0.10941407
0.122725636
-0.08132626
-0.06530471
-0.026992992
0.045011077
0.14386615
-0.057637513
-0.08863111
0.058018822
-0.056867145
-0.0721898
-0.074557304
-0.022038864
-0.07648801
-0.058186434
-0.057269227
-0.04053396
0.061704017
0.036035553
-0.047092788
-0.02922985
-0.13337393
0.11433363
-0.0429459
0.08908768
-0.017545208
-0.09529391
-0.022545002
0.12036508
-0.13223495
0.065791175
-0.041942097
-0.022703059
0.09629449
0.119437754
-0.14217262
-0.07719814
-0.07781461
-0.0372079
-0.02349548
0.052939832
0.0365628
0.06446944
0.014810145
0.12064326
0.052948713
0.1331642
0.11195129
-0.108670324
-0.085067436
0.07188147
-0.07006035
0.037783593
-0.07574668
0.13627455
-0.064395495
-0.034800418
0.054198653
-0.08800577
0.024279192
-0.0909193
0.022483021
0.0524576
0.13360572
-0.002331838
0.13292229
-0.062545635
-0.058335714
0.090776965
-0.02246654
0.1079115
-0.119206615
-0.05841046
-0.082584046
-0.12900242
-0.118550815
0.05714661
0.02823092
0.050490573
-0.122932345
-0.13766538
-0.11936454
0.0715998
0.0885286
0.04454136
0.10367903
0.06933689
0.0016426891
-0.080313675
-0.018844951
0.09616755
0.12808302
-0.047259215
-0.0062355543
0.02507915
-0.0827894
0.11354678
0.07949534
-0.10157287
0.14431754
-0.021291988
0.120840885
-0.055197906
-0.10980539
-0.10227778
0.111816645
-0.026403476
-0.07605897
-0.03420625
0.01632768
-0.022731187
0.08246839
0.0541099
-0.09204566
-0.032650344
0.03184142
0.031146914
0.12740254
0.056053355
0.098491795
0.05344471
-0.09228146
0.12920818
-0.01619623
-0.06609448
-0.06209452
-0.011722292
-0.14334536
0.0541531
-0.037812807
0.115618914
-0.017498612
0.044382986
-0.06951508
0.14904854
0.13812076
0.048843697
0.057448953
-0.123052925
-0.08599159
0.08217379
-0.018431649
-0.029246062
-0.09772124
0.086247414
0.026149478
-0.020070866
-0.05927611
0.037472293
0.111682564
0.04447481
0.09536257
-0.09609711
-0.13639231
0.026080534
0.006147012
-0.012367845
-0.08500391
-0.1398033
0.08149922
0.037121564
0.013827145
-0.07172359
0.07921961
-0.021709219
-0.04123512
-0.115986064
0.06677568
-0.13280076
0.05845675
0.05611995
0.14233953
-0.07465356
0.023753986
-0.07970807
-0.026555255
-0.07315708
0.054500073
0.041929185
-0.14143984
0.07567276
0.061035708
-0.053731598
0.0077015758
0.024871543
-0.11893837
-0.085905425
0.030041754
-0.029075101
0.047338054
-0.14236936
-0.020878598
0.04850912
0.058026552
-0.12086111
-0.12107599
-0.021623775
-0.14084515
0.120204866
-0.04968989
0.07980047
-0.07852874
-0.11622909
0.014101103
0.04690641
0.0016884208
-0.13956714
0.14134738
0.14079753
0.06623651
-0.03369897
-0.042207897
-0.029422909
-0.008649811
0.08551112
-0.00631921
0.09349223
-0.014125785
-0.021498555
-0.100129634
-0.061042473
-0.024547996
0.043036915
-0.069732845
0.08235026
-0.02768708
0.037895307
-0.13361083
-0.11101539
-0.0027258545
-0.031502925
0.12823683
-0.015690878
-0.10919284
0.04378347
-0.13336538
-0.0123708695
0.025692627
0.13192342
-0.09380776
0.082954705
0.073422156
-0.07833252
0.0735001
-0.05142556
-0.1079119
-0.10378606
0.081153035
-0.0016257482
0.04756634
-0.02792506
0.1177983
-0.05736454
0.06329646
0.066206515
0.11874328
0.005228888
-0.037026472
-0.14224097
-0.085258916
0.013555722
0.043649733
-0.017806286
-0.07828594
-0.00060578296
-0.07089293
0.07750167
0.12193236
0.026260983
0.03245092
-0.12018329
-0.050406344
-0.038791336
-0.055948664
0.11064991
-0.14417452
-0.10832767
-0.100335106
0.05843334
0.1109893
-0.0863126
0.10963449
0.08923712
0.10259183
-0.09564485
-0.10628614
-0.078451104
0.058268394
0.076003134
0.04137588
0.018470457
0.019735888
0.0056142295
0.07208092
-0.06027504
0.05281705
0.07755527
-0.059427
-0.060430605
-0.051036566
-0.050604373
-0.06665104
-0.039637737
0.084607795
-0.12430985
-0.014911608
-0.077362254
0.026596652
-0.02198559
-0.11682391
-0.07746539
-0.025090827
0.0458471
0.07834731
-0.04057154
-0.019009368
0.057227198
-0.033856418
-0.059897546
0.099910304
0.09051536
-0.09012058
-0.105675146
-0.0013794005
0.06168161
-0.10357875
0.03973752
-0.021251155
0.13454466
-0.01937581
0.013086902
-0.00353688
-0.13622275
0.11572654
-0.0063457787
-0.091125034
-0.06930929
0.14488165
0.09412591
0.0116226375
-0.042799458
0.09294312
-0.11534199
-0.11193833
-0.061413698
-0.006582096
-0.05968848
0.026053593
-0.11959706
0.011224166
-0.10672569
-0.08984269
0.10905385
0.074511334
-0.1003986
0.12193313
-0.101382464
0.10236013
0.11172971
0.0009647906
0.07269706
-0.045006894
0.014887854
-0.11093241
0.01716353
0.024566755
-0.09069028
0.102928415
0.11770031
0.099626794
-0.107607454
-0.012039989
-0.0631746
0.036554158
0.07628499
-0.06319865
-0.012162983
-0.041530006
-0.09875233
-0.030989997
-0.13139048
-0.0062052757
-0.14385822
0.12527657
-0.12552665
-0.12749372
0.08334236
-0.10261527
0.008037448
-0.09726012
0.020978078
-0.119929835
0.031782046
0.060815915
0.07851188
-0.08058697
0.089941695
-0.12675068
-0.034842506
0.081623554
-0.09363167
0.037794366
0.0032073408
0.10443291
-0.121936515
0.09411806
-0.04081697
-0.03177987
-0.1307125
-0.004123986
0.06594145
-0.017464027
-0.033340625
-0.061341017
0.120465696
-0.07775741
-0.03860943
-0.06189172
0.06588395
-0.013330579
-0.03929338
-0.09912756
0.11662534
-0.10141133
0.122381
-0.11837272
0.13240814
-0.06584454
0.04427129
-0.065367855
0.07695395
-0.06520516
-0.137073
0.069124326
-0.13227431
-0.016191036
-0.116324544
0.020632893
0.12892589
0.03945616
0.036309242
0.106140435
0.13707548
-0.08966089
0.13778499
-0.07767031
0.10928646
-0.101202756
0.059440777
0.03300658
0.068630636
0.041484296
-0.02506625
-0.015165597
-0.113913044
0.09982067
-0.02443175
-0.06084981
0.058945373
0.057704344
0.076718256
0.090466455
0.14164129
-0.099674284
-0.041664526
-0.017837614
-0.07320106
0.06301503
0.12088138
0.06289643
-0.12128628
-0.05515054
-0.034549274
0.021094708
0.10681139
-0.00468795
0.124224186
0.10987338
-0.058490425
-0.12220871
0.11010255
0.005603487
-0.038708966
-0.1254812
-0.011476749
-0.10473236
0.013817289
-0.0031072232
0.12878644
-0.023669755
-0.08958862
0.04666933
0.023486987
0.045690775
0.09233442
0.00017561893
0.016721055
0.051789455
-0.06181281
-0.06352694
-0.03458169
0.020854756
-0.10216496
0.09381949
0.060387716
-0.11290802
0.030106649
-0.08609486
-0.12210468
0.059723806
0.010485667
0.09160543
0.010880161
-0.05327955
0.065231785
0.023108035
-0.07865001
0.13970727
0.13265419
0.01099576
0.08566987
-0.12500761
-0.046191454
-0.035129882
-0.046175435
0.09473414
-0.12790957
-0.12826374
-0.06421434
-0.11283881
0.12762284
0.06321131
-0.14287657
-0.024930492
0.14047307
0.026834568
0.083752155
0.06348261
0.031879585
0.020171344
0.08404931
0.10052356
0.071380824
-0.064647734
0.044472333
0.0113223735
-0.047245663
0.10252991
-0.10645587
-0.1327051
0.08570815
0.040755566
-0.12198307
-0.049672063
-0.12456618
-0.01867441
-0.08799442
0.07846019
-0.03641653
-0.030754123
-0.091308124
-0.052040093
0.058521852
0.12758043
0.13947955
-0.041800663
-0.07790759
0.062733866
0.0472835
0.13543785
-0.0935475
-0.07627393
-0.077675425
-0.0015523414
0.011959732
-0.115425095
-0.032823555
0.025619328
0.06147006
0.047922924
-0.090861924
-0.03151104
0.08240121
0.022588719
0.01742155
0.080704615
0.03287294
-0.08545613
0.035246987
0.11901125
0.09359416
-0.0517016
0.09389208
-0.055049725
0.061925992
0.053554654
0.07019293
0.12941289
0.11314732
-0.11258538
-0.008610216
-0.008731603
0.00851796
0.0
-0.00595667
-0.006039007
0.008532586
-0.005538032
-0.0010275373
-0.008464023
0.008753626
0.0
0.0076392563
-0.0031078188
0.008649809
-0.0035466861
0.0
0.00020431113
-0.00151459
-0.006618469
0.0
0.0
-0.007814196
-0.008234163
0.0
0.008620203
0.0
0.009171448
0.0
0.0
-0.003875978
-0.008758376
0.008547095
0.0
0.0
0.0070790215
0.0065348633
0.009762579
0.0077015106
-0.008090774
-0.0075700236
8.955138e-23
0.0
0.0
0.0038507846
0.0
0.008317329
0.008718437
0.008527228
0.008741911
-0.004699505
0.0
-0.008706694
-0.0085247625
0.0
-0.0033283213
0.0
-0.010102101
0.0
0.0
0.0
0.0
0.0
0.008520781
0.1115466
0.02553983
-0.050275005
-0.13152818
0.023565903
-0.09303828
0.08776508
0.09637858
0.075258486
0.0577904
-0.023541864
0.12853053
0.045908593
-0.09132034
-0.08183834
-0.054646235
0.042607524
-0.0701592
-0.12422252
0.10037911
0.11656737
-0.113770865
0.062522456
0.12479082
-0.046883993
0.12565197
0.041607603
-0.061771512
-0.078934565
-0.14031671
-0.07453227
-0.075326115
-0.065919526
0.045380563
0.03536573
0.0581221
0.043925755
0.09028663
0.025793834
-0.06951749
0.07912542
-0.100624025
0.070956625
-0.0064801904
0.05149515
-0.12470995
-0.009470448
0.08847536
-0.047269188
-0.05869842
0.050447226
0.002282121
0.03510511
-0.032812387
-0.029527768
0.03710317
-0.11886063
-0.078912094
0.047042917
0.029889911
-0.02798964
-0.020231102
0.12705608
0.104841635
-0.06511814
0.1001998
0.11597886
-0.004214376
-0.081103325
-0.03846313
-0.00021109363
-0.12432846
0.05006495
0.0573467
0.069484875
-0.03707124
0.05506596
0.013541066
0.065034896
-0.010086879
-0.07781988
-0.02046521
-0.12757759
0.056810506
-0.03607577
-0.05701763
0.09388806
-0.046257004
-0.048159286
0.08751239
0.13836774
-0.13765596
-0.07308932
-0.09647001
-8.581766e-05
0.06081313
0.033513058
-0.09008393
0.044650063
0.0036702454
-0.04525984
-0.07153817
-0.0025678985
-0.11294722
0.06280485
0.04583648
0.041999176
0.10865458
0.0033545648
-0.10801475
0.020069217
0.051069394
-0.03916987
-0.08402241
-0.10345036
0.06410234
-0.047516778
-0.11601182
-0.11836179
-0.12920116
0.122944385
-0.08995699
-0.04145685
-0.049085096
-0.068090595
-0.040047973
-0.12076457
-0.0803818
-0.09808426
-0.1351699
-0.035285477
-0.050890498
-0.07755187
-0.02389554
-0.011384736
0.0040379046
0.037521724
0.058896136
0.12022653
0.014161497
0.11657161
-0.004680544
-0.055474147
-0.016508246
-0.11861901
0.13888505
0.039906055
-0.053413607
-0.13342881
0.021949857
-0.096367314
-0.103217885
-0.08988636
0.08710364
-0.013266258
0.10669389
0.00823307
0.07652994
-0.05292027
-0.08539492
0.09256454
-0.11718295
-0.020545423
0.06839876
-0.11843678
-0.023080863
0.028603211
-0.12731674
0.11494761
-0.09076992
0.056535758
0.04671119
-0.011838719
0.079746276
-0.077035405
0.13087577
-0.019569866
0.032911215
-0.087765664
-0.12569577
-0.12559508
-0.10787268
0.020796448
0.09420127
-0.088531226
-0.060383894
-0.0682234
0.027582958
-0.022731215
0.014870152
-0.07319573
0.061720993
0.058782175
-0.0330458
-0.080177866
0.129621
0.0933131
-0.13139404
0.10604718
0.007221043
0.103368744
-0.018116988
-0.11664776
-0.068914205
-0.11133182
0.03414917
-0.130351
-0.091772825
-0.10835057
-0.09330386
0.049137205
-0.044310525
-0.030283995
0.08285964
-0.016266087
0.123199105
0.009276653
-0.11143865
-0.04640953
0.056693904
-0.038597375
-0.05346398
-0.09840219
-0.11428613
0.022428067
0.08925969
0.07837435
-0.102345824
-0.014061175
0.014808405
0.006246545
-0.12933935
-0.13140781
-0.108307
0.035669718
0.08169
-0.10008225
-0.009710833
-0.08619548
-0.07517198
0.029240057
-0.13888313
-0.08512901
-0.06679789
-0.010456547
0.12967572
-0.10718385
0.05612594
0.050107688
0.07168307
-0.09407084
0.123417795
0.09862423
0.017060935
-0.08923003
0.03136431
0.048350554
0.0013019873
0.0741485
-0.0756553
0.09190312
-0.056996234
0.11656242
0.03843897
-0.10878599
0.13587296
-0.12668043
0.04626657
0.104239784
-0.053342372
-0.008032978
0.009499177
0.04751309
-0.10938041
-0.1305655
0.051500335
0.10095967
-0.03400799
0.044693753
-0.0505687
0.0015503215
0.13375035
-0.093237296
0.05638289
0.07065719
-0.03402679
0.011594203
-0.030364837
-0.06314004
-0.007221371
0.004510641
-0.130911
-0.121779695
-0.05515765
-0.023795418
0.0116622895
-0.08599165
0.013087176
0.08164541
0.105712086
0.089750126
0.065726265
0.05956377
-0.08502107
0.08343169
-0.12208931
0.07178743
-0.09787267
0.01164858
0.075757876
-0.09069793
0.12656718
-0.0326583
-0.08437038
0.05541853
-0.0990988
-0.096880205
0.021510078
-0.113348454
-0.0985661
0.062915236
-0.05903899
-0.042970207
-0.042784102
-0.124243736
-0.060555816
-0.074805416
-0.026771463
-0.110020764
-0.016991682
-0.10604514
0.069796845
-0.12660341
0.10003639
-0.03253761
-0.04373125
0.084200166
-0.074163236
0.09264091
0.080513835
-0.059032977
0.00090953516
-0.023040809
-0.117734745
0.07386547
0.07227899
-0.113628455
-0.05396709
-0.042939924
-0.08693352
-0.062549606
0.006877717
-0.0700126
0.08408232
0.13726416
0.106502
-0.058976397
0.07748745
0.027066115
-0.029678628
-0.04612553
-0.11519583
-0.06450562
0.09286049
0.08981812
-0.02639635
-0.037070632
0.03345284
0.021083117
-0.13317083
-0.11008889
0.034082577
-0.094114974
0.05628446
0.093538046
-0.06955158
-0.08422583
-0.0036778867
-0.101592235
0.1185008
0.110764645
-0.028534815
-0.08546387
0.12353526
0.06461355
-0.07256847
-0.1093529
-0.044818327
0.13261434
0.022479415
0.033303693
-0.094491065
-0.07614151
-0.13299765
-0.050022975
0.042364106
0.063263014
-0.005774468
-0.037037738
-0.0052943975
0.05060491
0.03448002
-0.095064834
0.05596149
-0.07624297
0.032959864
0.095021605
0.10885438
0.07873914
0.11426875
0.0019651055
0.07457851
-0.10225255
0.07820755
-0.13214087
0.035958007
0.025102943
0.11035366
0.010345802
-0.0141837
0.0897907
-0.00058706105
0.08406146
0.105857864
-0.10619119
0.030068293
0.06716308
-0.12862235
0.013087645
-0.07853758
-0.07703217
-0.04491254
0.09650014
-0.13447659
0.053860605
-0.10671504
0.008250013
0.036648422
0.03320363
-0.056837864
0.061993226
0.086302534
-0.12792385
0.08101508
0.06908946
-0.13554528
-0.06628569
0.017662778
0.006141588
-0.12510277
0.02372095
-0.11095648
-0.016610466
0.007196009
0.06404135
-0.128736
0.07210672
0.043561324
-0.024369992
-0.0771782
-0.112003304
-0.06794568
-0.08490521
0.05437702
-0.010416418
-0.009654015
0.11509821
0.050539672
0.10090962
-0.01595185
-0.04881426
0.027848616
0.018005297
-0.13326685
-0.10687155
-0.06389558
-0.09657253
-0.012707055
-0.07868822
-0.05226849
0.08859831
-0.06855213
0.040805444
-0.13438399
-0.06826066
-0.026669405
-0.044896543
0.043337762
0.124510586
0.03140688
-0.11544225
-0.13538629
0.0727603
-0.12227056
-0.023226507
0.04050666
0.12505159
-0.024669237
0.12239885
-0.12880276
0.06346814
-0.10898991
-0.011431053
-0.012198739
0.06377743
-0.0065376908
-0.027649723
0.020436645
0.027084127
0.03775446
-0.025463827
0.05340071
0.062754154
-0.0014858842
-0.038616836
-0.061582394
0.10736987
-0.12556835
-0.07175322
-0.12577699
-0.04410953
-0.05004064
0.06462328
0.11386746
-0.07406115
0.07404888
-0.12718809
0.09888862
0.1221126
-0.047611125
0.015919432
0.047883764
-0.059494272
-0.015228495
-0.03358733
0.09063299
-0.008485585
0.06693062
-0.082415566
0.10899758
-0.08314982
0.11362696
-0.1288391
-0.11754918
-0.10960494
0.023088709
-0.053113125
-0.054670677
0.061174303
-0.086612865
0.035210818
0.042265177
0.05039966
-0.054976545
0.02435024
-0.13103865
-0.032811254
0.06396118
0.014583364
-0.02501408
0.039477304
0.12261215
0.08556232
0.016703933
0.029572457
-0.049935773
0.116012454
0.09436348
0.055025935
0.099849254
-0.12005554
0.08612558
0.07767147
0.06043254
-0.012341797
0.111040294
-0.11863756
0.12427819
-0.017046891
0.090643436
0.037952304
-0.0047183186
-0.09098783
0.0004786402
-0.09721776
-0.039192297
-0.12933184
0.008026049
0.05047673
0.10239692
0.08954488
-0.028233618
0.09077504
0.08212674
-0.06531409
0.034646854
-0.034186825
-0.0010870695
-0.07790626
-0.0064744204
-0.008476585
0.0054982454
-0.10684073
0.064879626
0.020847768
-0.079686224
-0.11641666
0.031035915
0.111275345
0.1159049
-0.102881394
0.08781877
-0.03647729
-0.006915316
0.012416884
0.087087646
0.004341826
0.09909417
0.12164891
0.11942732
0.039562285
0.12097171
0.07042138
-0.1196517
-0.065873064
-0.04424844
0.052002683
-0.09261857
-0.047520764
-0.012346014
0.06193237
-0.021466292
0.10800411
0.05446121
-0.021857135
-0.07544978
-0.1212953
0.12230125
0.01000981
-0.03880416
0.12122773
-0.12090417
0.09006163
-0.031964526
0.05187261
0.060382262
-0.13156533
0.10663062
-0.04959081
-0.11066181
0.006607676
-0.13627592
-0.11059272
0.0917916
0.075680524
-0.07361229
0.09572219
-0.04173675
0.09523137
-0.02879563
-0.04048939
0.10985553
0.05691398
-0.09536332
0.04579633
-0.09774184
0.1006621
0.08958937
-0.033626214
0.11047591
0.02254885
0.04193575
0.12015778
-0.0199821
-0.014784172
-0.051125526
0.049877692
0.10791504
0.08496194
-0.04644417
0.06554507
-0.10773043
-0.028733868
0.0742668
0.10984574
0.05222941
-0.107073374
-0.106220536
-0.09635989
0.07032431
0.06149435
0.08553292
0.12944889
-0.0023005877
0.13411513
0.0070769466
0.100039065
0.04513597
0.12547244
-0.04881312
0.054374054
-0.059700698
-0.055144783
0.062411204
0.08843982
-0.09854038
-0.008013446
0.03941606
0.038982674
0.009644225
0.08918588
0.028833434
0.030994387
0.113607615
0.074426115
-0.022223499
0.019696668
0.1223314
0.06905149
-0.11460395
0.077985905
-0.015381873
-0.019339286
-0.07148291
0.136139
-0.023245199
-0.12633413
-0.10353476
0.10303973
-0.07133756
0.12617633
-0.04286323
0.03902404
0.12434459
0.06340607
0.0592302
-0.063350216
-0.019830607
-0.0105646895
-0.057831176
-0.034843743
0.087316275
-0.078829266
-0.10640363
-0.13569072
-0.103436716
-0.08874452
0.00837268
0.0046758917
-0.041008115
-0.098148614
0.032365344
-0.13499583
0.0101984525
-0.061547987
-0.047891892
0.0015867949
-0.037025034
-0.12071788
0.009028703
-0.08976427
-0.059833318
-0.11910516
-0.059480138
0.14202808
-0.009350315
0.02349937
-0.098042026
-0.12638634
0.020674996
0.07302493
-0.07452659
0.10060401
-0.016244434
0.10559101
0.06011117
-0.041178487
-0.09435338
-0.05773246
-0.114828855
0.09944769
0.10088873
0.10924508
-0.09384334
0.009467717
-0.119896635
-0.07954317
0.06619738
-0.050580814
-0.026731275
-0.026486164
-0.12824143
-0.018898569
0.13393629
-0.068924434
-0.0013095812
0.02993542
-0.070196725
-0.02346265
-0.03360939
0.04618238
0.015918091
-0.07106659
0.064483136
-0.047053568
0.044224877
0.09554171
0.045955837
0.12632045
-0.0892928
-0.12178878
-0.015454249
0.06343056
0.09886698
-0.0774478
-0.0898954
0.010417461
-0.1258478
0.09679587
0.04810396
0.08460888
-0.019054519
0.016711056
0.13118409
0.0015975684
0.10100945
-0.007311671
0.035742998
0.111179985
-0.0062773316
0.032023624
-0.13267958
0.0063124597
0.06504188
0.018057996
-0.11935031
0.054219946
0.08228853
0.1268011
0.0853041
-0.052867394
-0.1056187
-0.0927786
-0.1334221
0.045285046
-0.010211746
-0.12575708
-0.029730238
0.03485178
-0.056530952
0.03149712
0.060868423
-0.06453191
0.14079438
0.08727122
0.0021849573
0.042621598
0.00908038
0.07397648
0.11011535
-0.079526976
-0.11372242
-0.10210896
0.011832172
0.052142654
0.11086343
0.11368306
-0.12515892
-0.044418953
-0.012561118
-0.07537168
-0.11193974
0.12372151
-0.051385656
0.09506058
-0.027979096
0.06670342
-0.11536726
-0.027693141
-0.109660916
0.009425625
0.02199798
-0.12570876
0.12419903
-0.0383742
0.06779766
-0.0069689155
0.060691208
0.13663149
0.06425309
0.061835766
-0.13273387
-0.04168765
-0.019097045
-0.075737074
-0.015225802
-0.069055125
-0.06829093
0.07601327
0.03175251
0.018966943
-0.011429518
0.008247626
0.09826089
0.11676577
-0.08824207
-0.093756504
-0.120331794
0.030109484
-0.12412598
-0.09388645
0.049140856
0.040556114
-0.054067675
0.1084674
-0.067265026
-0.014884464
0.13319981
0.09823588
-0.046855584
-0.009356111
-0.117123365
-0.06144779
-0.030859435
0.04946743
-0.0729888
-0.10639409
-0.037604064
-0.044051774
-0.065150395
0.013092518
-0.03104774
-0.04875716
0.032967463
-0.07537327
-0.040170267
0.031423368
0.054466993
0.049109276
0.09990133
0.056809336
0.06271657
-0.095232055
-0.0250121
0.06584884
0.12263504
0.0040744543
0.00650461
-0.12236984
0.04616624
-0.042030938
0.11417955
-0.08640194
-0.08952063
0.07387751
0.0060153306
0.046375465
-0.048699565
0.032952085
0.11706337
0.016033992
0.018087417
0.12107102
0.13266724
-0.10841921
0.014471576
0.04205469
-0.044336036
-0.119414575
0.042616203
-0.11936869
-0.13983706
-0.03971661
-0.014556083
0.0555332
0.03524944
0.10364509
-0.08271144
0.06929533
0.013496181
0.134689
-0.10283272
-0.023749672
0.07048972
0.12750095
-0.078843445
0.03510851
0.028240947
-0.035238676
-0.1330988
-0.00067611295
0.020606717
0.12667334
-0.11209014
0.11279608
0.010330036
-0.026139222
-0.12810494
0.11618906
0.09637341
-0.07632491
0.08917375
0.038740862
-0.08190167
-0.0936651
-0.056709923
0.0045070946
-0.09931121
-0.11734684
0.010837242
0.0009378791
-0.05463963
-0.021862946
-0.09181076
-0.07834262
0.12418282
-0.11340712
0.13026798
0.0037453026
0.070947394
0.01755945
0.0906643
0.1227158
0.044795398
-0.105489254
0.07497124
-0.022780955
0.12545946
0.10529135
-9.164214e-05
-0.03930419
0.037641693
0.075429425
-0.13305278
0.01598682
-0.070512116
-0.120260395
0.13406253
-0.11165153
-0.0064079044
0.029534156
0.027560277
0.06977321
-0.046043
0.1162191
0.10377137
-0.0420753
0.08798723
-0.09993038
0.10898941
-0.08758506
0.008383083
-0.06609115
-0.030830916
0.0014386959
0.06942201
-0.04864894
0.06659071
0.123420805
0.057475626
-0.093607225
-0.018991278
0.059250068
-0.114580765
-0.0957888
-0.008977894
-0.0391558
0.028812017
-0.034433246
0.011291908
-0.10844941
-0.09518622
-0.13547015
0.057349235
-0.022761583
0.03294007
0.08929445
-0.008803591
0.057541803
0.045393925
0.056779265
0.12607975
-0.12612562
0.076575115
0.12102306
0.05379614
0.06097875
0.067782275
-0.04151708
0.060140397
0.09285121
0.034155875
-0.06602654
-0.118062876
-0.045346893
-0.026092798
0.030770728
-0.10015434
-0.073346026
-0.028323524
-0.11681156
-0.03255416
-0.08182225
0.08769974
-0.02324089
-0.044337176
0.07899451
-0.09033214
-0.116228975
-0.07387829
0.14207889
-0.115163386
0.06588721
-0.04567863
-0.117230564
-0.11280141
0.0060073733
0.087514535
-0.060916632
-0.05929787
-0.09323465
-0.122681946
0.00803002
-0.0020792484
-0.09186747
-0.009687983
0.12467139
0.11616206
-0.10572689
0.10328895
-0.1022568
0.06682714
-0.02891911
0.078097045
-0.07828282
-0.06671678
0.035875484
-0.043004576
-0.069852486
0.037544608
0.09258129
-0.020862943
-0.121915884
0.107503265
0.046343327
0.012773076
-0.018131644
-0.12948295
0.05630094
-0.12010911
0.06714192
0.08008912
0.123174176
-0.110671
0.08051392
-0.1337231
-0.09444549
0.13612881
-0.088097475
-0.05128651
-0.05229193
-0.10096311
-0.0111611625
-0.05376169
-0.066400245
-0.1091471
0.10134624
-0.056994308
-0.0688627
0.079929784
-0.062965184
0.026790723
-0.0023727715
-0.0047880113
0.13219987
0.057315648
-0.102689
0.088939644
0.012519732
-0.08971563
-0.009992108
-0.100726224
-0.10389599
-0.07628331
0.043438375
-0.12994704
-0.10270454
-0.045193695
0.07802565
0.0431044
0.0558288
-0.11601785
0.09853042
0.06612116
-0.056364965
0.042286847
-0.13449477
-0.03608211
0.003377676
0.118084416
-0.05511839
0.11263014
-0.0443438
-0.067149304
-0.0728333
-0.10834934
0.031413943
0.044074386
-0.10936149
-0.04120587
-0.039363604
0.0067555755
0.004641929
0.127193
0.12807472
-0.013362992
0.12911427
0.05552282
0.068485364
0.10900968
-0.08820166
-0.06819416
-0.049840573
-0.12892503
-0.13754949
0.04999134
-0.0017012454
0.12544681
-0.091778904
0.0771411
-0.071325414
-0.06367894
-0.03874275
-0.07635354
-0.0685058
0.07410728
0.13674787
-0.12832397
-0.071604684
-0.05330365
0.09881974
0.1270898
0.07448493
0.1073723
0.0040491223
0.039597675
-0.057068136
-0.03247317
0.123919554
0.13267316
-0.019411694
-0.10305716
0.033118293
0.018929945
-0.07070193
0.0011857003
-0.11205919
-0.08095808
0.07838095
0.10113101
0.05555396
0.040135264
0.005299751
-0.1267736
-0.1144652
0.00476356
-0.082710594
0.04066506
0.13158384
-0.11761115
0.00076298416
0.011874095
0.065859064
0.082834646
-0.023490101
-0.12666218
-0.060534712
-0.10544646
0.029479742
2.134523e-05
0.07112525
-0.037642002
0.06779089
0.07308367
0.0026957095
0.11287883
0.0028873174
-0.017272584
0.14233878
0.10418826
0.054044977
-0.09887028
-0.07558684
0.011477709
-0.0761827
0.036320187
-0.10565928
-0.035389207
-0.07963334
-0.09869173
-0.015066043
0.060999066
-0.085003264
-0.088045284
-0.10581394
0.076167144
-0.035225384
0.11514129
-0.013299659
-0.14164786
0.10371882
-0.028371101
-0.047857158
-0.10156746
-0.025824577
-0.13144523
0.020538613
-0.018059706
0.03371914
0.022031307
-0.1152779
-0.0070838844
-0.12457831
0.03478578
0.11491379
0.005930972
0.024773046
0.06742846
0.1366106
-0.09686644
0.09970091
0.08731618
0.061616972
0.060903136
0.120042175
0.047076732
-0.11375964
0.10191323
0.11497792
0.0016129464
-0.09096633
0.05199131
-0.1318361
-0.06604853
-0.011696011
-0.03670812
-0.024509493
0.11152418
0.015830502
-0.121754125
-0.024183989
0.06391609
0.047515675
-0.082478344
-0.09110619
-0.072635055
0.10076924
-0.006439961
0.0007671714
0.033045754
-0.12816231
-0.106892444
0.09512295
0.020438636
-0.09468812
0.14074549
0.13706726
0.061165527
-0.07908719
0.08718331
-0.10183513
0.062812865
-0.050188363
-0.09925303
-0.11631802
0.13137068
0.10542436
0.09074032
0.076214656
0.044089094
0.06487365
-0.02007455
0.08442884
-0.1350258
-0.015405409
0.10644904
6.2439256e-05
-0.07922819
0.037240688
0.093595505
-0.08928248
0.017634785
-0.06830927
0.1269675
-0.090118095
-0.104032554
0.066749245
-0.06057375
-0.0014804304
-0.07649993
0.036708176
-0.04983686
-0.04130879
0.044680625
0.08500639
-0.068391636
0.09371284
-0.07396425
0.08581087
-0.101814106
-0.111943625
0.0037589818
0.09526265
-0.03617449
-0.03276225
-0.020669118
0.046404988
0.042650178
0.11662394
0.112905174
-0.1307129
0.026934072
0.09476699
-0.096151285
0.11322674
-0.03377492
-0.06411699
-0.04856141
-0.11122034
0.020491809
-0.11699311
-0.06879891
0.12916437
0.0018239468
0.08984256
0.03039816
-0.09861201
0.009413287
0.06758556
-0.03919132
0.014464468
-0.060175285
0.10204364
0.03620237
-0.12956758
0.08870508
0.037937284
0.113467485
0.004586324
-0.045066573
0.11883432
-0.005927101
-0.055902436
-0.11559044
0.02717778
0.12131733
0.10491787
0.09234999
-0.048274085
-0.030819468
0.13097692
-0.10785066
0.027119637
-0.0033049732
0.08185123
-0.08424552
-0.04825499
0.037284255
0.09686482
0.047005296
-0.04526826
-0.029839054
-0.006958112
0.04927291
0.13389212
-0.010459781
0.08380492
0.0018413067
-0.10170849
0.015729532
0.13685569
-0.08510977
-0.079027966
-0.10820455
0.12817058
-0.08135797
-0.024967402
-0.0811232
0.04799339
-0.03867256
-0.101625405
-0.05389779
-0.09718636
-0.10095148
-0.035076775
-0.04320211
0.07253344
-0.06011104
-0.03105332
-0.12572332
0.1290394
0.0031735003
-0.022024944
-0.10921951
-0.1223955
0.0069016665
-0.04987753
0.041307747
0.11740258
0.061919868
0.0975585
-0.07694523
0.10428296
-0.12861775
-0.112597704
-0.0812123
0.11856806
0.015314907
-0.023940854
0.1352396
-0.10972652
0.1060199
0.13162318
0.102165416
0.056351796
0.12450734
0.02579552
-0.120666035
-0.04305598
-0.1189972
0.028102174
0.02474393
-0.013806529
-0.05479858
0.11389536
0.074041426
0.07309195
-0.104391575
0.021739174
-0.004312873
-0.028430082
-0.114166744
-0.0985723
0.0077466676
-0.070539586
-0.020402584
0.11652979
-0.10160546
-0.058678675
0.104023084
0.088345304
0.088582434
-0.1055484
0.072977886
0.0033329725
-0.065905124
-0.025888659
-0.066864386
-0.020482462
-0.03802178
-0.14362746
0.048241206
-0.09428656
0.051248897
0.10837363
-0.092996836
-0.092505775
0.09417716
0.0021348745
0.097711384
-0.049568072
-0.080189735
-0.05707653
0.07094451
-0.13331369
-0.11993739
-0.112563394
0.009413232
0.105280064
0.0996874
-0.11155402
-0.09186592
0.04478225
0.04050257
-0.05988189
-0.061631866
-0.10949544
-0.03500562
0.1322267
0.10328992
0.07864757
-0.12419757
-0.045614973
0.10938516
-0.067119226
0.11770663
0.10138092
-0.0089888405
-0.05130335
0.09425141
-0.099417076
0.002384623
-0.081751384
-0.096232414
-0.007342756
0.06756897
-0.09501193
0.09863222
0.080357
-0.05320532
0.02944686
-0.009508464
0.056927383
-0.05115923
0.04590805
0.005328223
0.05298738
0.016398162
-0.048465006
-0.06923304
-0.028913483
-0.011628718
0.03483733
-0.0052199364
-0.0015920711
-0.11600587
0.14248818
0.027837459
0.0005593747
-0.08744797
0.11633638
-0.05058992
0.012771063
-0.110877715
0.0017118378
-0.13617082
-0.08628764
-0.07819797
-0.0038368031
0.11115034
0.08042157
-0.13053533
-0.086007945
0.054876193
-0.06555186
0.019761413
0.025563223
-0.03602962
-0.12481652
-0.10784816
-0.087179914
0.074932456
0.048565716
-0.10535546
-0.028684303
-0.01032272
-0.08585389
-0.1144187
0.1040048
0.035697654
-0.017485775
-0.065381534
0.10447922
-0.1175354
-0.055794694
0.11021095
0.054124825
-0.034159698
0.10094531
-0.019049056
0.022138102
-0.12969394
-0.05063248
-0.015982248
0.02246928
0.104884475
-0.036624294
-0.056670353
0.047906056
-0.13031578
-0.048497953
0.071481116
0.0611386
0.059527576
0.017082542
-0.068351775
0.06946348
0.03241107
-0.08124165
-0.100324996
-0.070368595
0.0926889
-0.045047045
0.008482594
-0.08364221
-0.12475417
0.101845935
-0.010248452
-0.022222258
0.13238609
-0.1300689
-0.09906202
0.04520882
-0.046048947
-0.09791299
0.13656142
-0.116987474
0.049434036
-0.03734348
0.04543214
0.034138933
0.11952678
-0.07557057
-0.10884293
0.021363482
-0.0008908361
-0.10476616
0.1131971
0.12474772
-0.024911452
-0.04310724
-0.036321975
0.005673984
-0.11869107
0.055813152
-0.0931976
-0.024388466
-0.11692433
0.075975195
0.061512813
-0.09911245
0.12897813
0.012436807
0.10274029
0.12888595
-0.07092258
0.0051365714
0.07986161
-0.12978701
0.09178838
0.13106498
0.04864543
0.03714387
0.1270459
-0.035410907
0.12200764
0.087271094
0.012464747
0.027707025
0.14197141
0.02488926
-0.09190096
0.13669756
0.11812168
-0.09785791
-0.117329404
-0.015042409
-0.0028769374
0.044598963
0.117099404
-0.09171737
-0.08967065
0.11741089
-0.0625603
-0.1328447
-0.0762905
-0.032090917
0.11048989
-0.010901198
-0.08237149
-0.06240025
0.12702228
-0.10911099
-0.030737132
0.021433093
-0.13845317
-0.09878232
-0.005111137
-0.115121335
-0.081870034
0.037739545
-0.053902145
0.0045806766
0.040548876
-0.07076085
-0.09467319
0.120624095
0.02933009
0.011598896
0.103506684
0.10845156
0.018536955
0.028784556
-0.051629633
-0.049810734
-0.038535774
0.041576013
0.123408526
-0.12556371
-0.13137162
0.082283266
0.09014904
0.016535947
0.08146404
0.07501441
0.026726276
0.0460335
0.038194224
0.10062724
0.04951196
-0.0061189234
0.12354115
0.109872505
0.061981082
-0.033786844
0.018268019
-0.10456961
0.037823763
0.08718984
0.121371165
0.05306354
0.09819816
0.14527762
0.042466197
-0.056920037
0.046481118
0.049370766
0.016543448
-0.09311199
0.10681965
0.10683754
-0.09487143
0.10138931
-0.09706487
-0.011608934
0.030270405
0.124382496
-0.08164665
0.07130268
0.1283027
-0.0934841
0.0389287
-0.011044279
-0.06226782
-0.016345046
0.03289144
-0.08181741
-0.101743646
-0.033306926
0.04216294
-0.047244668
0.115771025
0.09877907
-0.008144598
-0.077851534
0.0067401156
-0.11202632
0.0844583
0.07204904
0.002079174
0.03908433
-0.06475511
-0.07858155
-0.032723173
0.09959085
0.081454635
0.07217536
0.06566031
0.004646614
0.050567403
-0.06199061
-0.05971957
-0.12723929
-0.054557487
0.06387274
-0.07307719
-0.11845846
0.08432204
-0.08127922
-0.035779893
-0.013057238
-0.11465585
-0.10475842
-0.079557255
0.057182193
0.13461944
-0.011805169
0.0370026
-0.11973802
0.01405816
0.1449342
-0.09685117
0.028746948
0.0041679614
-0.0909468
0.108876064
0.0007772893
0.03980714
-0.10134763
-0.07387572
-0.08792258
-0.110637784
9.915386e-05
0.09320272
0.04095657
-0.0015465824
-0.104141206
-0.11961807
0.059490383
0.055104233
0.082795635
0.11973485
-0.052799262
-0.123898916
0.09498958
0.029735342
-0.0072069457
0.13249677
0.062011465
0.03958905
-0.08583864
-0.039046012
0.052288994
-0.11798391
0.09812008
0.08398037
-0.01858226
0.09019002
-0.061763816
0.015819998
0.11630503
-0.100311145
-0.016816478
-0.06805952
-0.06533126
0.044593934
-0.005675798
0.06464342
0.02001056
-0.13406165
0.032829568
0.083820745
0.05471097
-0.09315686
-0.1269279
0.089510046
-0.11473081
-0.14102046
-0.017527223
-0.035360657
0.08177033
0.038706176
0.022862077
0.069698095
-0.025347404
-0.00485833
0.088371366
0.019714579
0.10768747
-0.03849245
-0.14169998
-0.10048311
-0.0810301
0.031874757
0.022954136
0.035954807
-0.13194306
0.04625169
-0.03646244
0.016213259
0.082860276
-0.07506141
-0.12415732
-0.110102236
0.0336964
-0.030276855
0.08563702
-0.12345509
0.04825963
0.078674346
-0.008724625
-0.06903372
0.07055196
-0.05189182
0.054745927
0.031071834
-0.04560273
0.053487256
0.13180542
-0.029604226
0.08713857
-0.1224638
0.0041186553
-0.09402226
0.037418794
0.053618245
-0.12339573
0.07373071
-0.019888371
-0.022185758
-0.0016532368
0.015214264
-0.017498985
-0.09232693
-0.13184577
0.04748362
0.07663336
-0.019465007
0.109840654
-0.050579242
-0.021654326
-0.09710536
-0.13209118
-0.12593755
0.11138527
-0.030858045
0.05171091
0.042660683
-0.032720093
0.13447434
0.12658516
0.029420437
-0.09527648
0.0458432
-0.03340079
0.1360316
-0.092826664
0.09484093
0.109797254
-0.074567206
-0.031405337
0.11223698
0.0925097
-0.04237669
-0.12831965
0.06362353
-0.078682855
0.00043682987
-0.09161207
-0.13383658
-0.07747695
0.05903906
-0.07679075
-0.06346804
-0.12182551
-0.06773243
0.116711706
0.032168504
0.101545185
-0.06946161
0.016808406
-0.08211861
0.048811913
-0.13620572
-0.1230503
0.10628678
0.029244065
0.09054661
0.061960876
-0.045244172
0.032533556
0.032302022
0.0531763
-0.10352813
-0.057897158
-0.1287552
-0.038034283
0.059781656
-0.10141787
-0.12348587
0.02858065
0.124070674
-0.010032073
0.11437556
-0.004827425
-0.07307969
0.06766437
